{"learner":{"attributes":{"best_iteration":"0","best_score":"0.6849574714741379","scikit_learn":"{\"_estimator_type\": \"classifier\"}"},"feature_names":["f00","f01","f02","f03","f04","f05","f06","f07","f08","f09","f10","f11","f12","f13","f14","f15","f16","f17","f18","f19","f20","f21","f22","f23","f24","f25","f26","f27","f28","f29","f30","f31","f32","f33","f34","f35","f36","f37","f38","f39","f40","f41","f42","f43","f44","f45","f46","f47"],"feature_types":["float","float","float","float","float","float","float","float","float","float","float","float","float","float","float","float","float","float","float","float","float","float","float","float","float","float","float","float","float","float","float","float","float","float","float","float","float","float","float","float","float","float","float","float","float","float","float","float"],"gradient_booster":{"model":{"cats":{"enc":[],"feature_segments":[],"sorted_idx":[]},"gbtree_model_param":{"num_parallel_tree":"1","num_trees":"51"},"iteration_indptr":[0,1,2,3,4,5,6,7,8,9,10,11,12,13,14,15,16,17,18,19,20,21,22,23,24,25,26,27,28,29,30,31,32,33,34,35,36,37,38,39,40,41,42,43,44,45,46,47,48,49,50,51],"tree_info":[0,0,0,0,0,0,0,0,0,0,0,0,0,0,0,0,0,0,0,0,0,0,0,0,0,0,0,0,0,0,0,0,0,0,0,0,0,0,0,0,0,0,0,0,0,0,0,0,0,0,0],"trees":[{"base_weights":[-3.744648E-2,-6.4277047E-1,6.392444E-1,7.294425E-2,-1.6059114E0,7.254317E-2,2.968174E-1,-6.457567E-1,8.650534E-1,-1.5832342E-2,-9.559635E-2,6.8969923E-1,-4.8112605E-2,-9.085934E-3,-5.5835973E-2,4.2815045E-3,6.685038E-2,-1.8304644E-2,9.6450406E-1,1.31538855E-2,1.1575807E0,8.2685284E-2,3.5093915E-2],"categories":[],"categories_nodes":[],"categories_segments":[],"categories_sizes":[],"default_left":[0,0,0,0,0,0,0,0,0,0,0,0,0,0,0,0,0,0,0,0,0,0,0],"id":0,"left_children":[1,3,5,7,9,-1,11,13,15,-1,-1,17,-1,-1,-1,-1,-1,-1,19,-1,21,-1,-1],"loss_changes":[4.6969242E1,4.202436E1,1.4427523E1,2.0873512E1,9.400177E0,0E0,2.0118769E1,3.8622894E0,6.1625166E0,0E0,0E0,9.30884E0,0E0,0E0,0E0,0E0,0E0,0E0,2.8956566E0,0E0,2.8871975E0,0E0,0E0],"parents":[2147483647,0,0,1,1,2,2,3,3,4,4,6,6,7,7,8,8,11,11,18,18,20,20],"right_children":[2,4,6,8,10,-1,12,14,16,-1,-1,18,-1,-1,-1,-1,-1,-1,20,-1,22,-1,-1],"split_conditions":[3.932131E-1,4.5169818E-1,3.9683682E-1,2.0790906E-1,2.6292643E-1,7.254317E-2,1.7831776E-1,2.9833645E-1,-4.9323414E-2,-1.5832342E-2,-9.559635E-2,4.28359E-1,-4.8112605E-2,-9.085934E-3,-5.5835973E-2,4.2815045E-3,6.685038E-2,-1.8304644E-2,2.874052E-1,1.31538855E-2,8.092838E-1,8.2685284E-2,3.5093915E-2],"split_indices":[47,14,11,3,2,0,8,19,5,0,0,14,0,0,0,0,0,0,2,0,11,0,0],"split_type":[0,0,0,0,0,0,0,0,0,0,0,0,0,0,0,0,0,0,0,0,0,0,0],"sum_hessian":[1.1266222E2,5.9571392E1,5.3090824E1,3.4646126E1,2.492527E1,1.4705909E1,3.8384914E1,1.8195446E1,1.6450678E1,5.2343063E0,1.9690962E1,2.966107E1,8.723845E0,9.970108E0,8.225339E0,6.7298226E0,9.720855E0,5.9820647E0,2.3679007E1,5.732812E0,1.7946194E1,7.228328E0,1.0717866E1],"tree_param":{"num_deleted":"0","num_feature":"48","num_nodes":"23","size_leaf_vector":"1"}},{"base_weights":[-3.8626175E-2,-6.65661E-1,5.5360526E-1,-9.996938E-3,-1.4323891E0,1.3717905E0,1.397004E-1,-4.548537E-1,3.927047E-2,-8.452283E-2,-3.4564234E-2,8.023011E-2,3.8945537E-2,5.190166E-1,-5.4897036E-2,1.753251E-2,-6.830742E-2,-1.6357461E-2,8.075265E-1,3.0249327E-2,-2.3500381E-2,2.633751E-1,8.221806E-2,-1.8260721E-2,3.5501E-2],"categories":[],"categories_nodes":[],"categories_segments":[],"categories_sizes":[],"default_left":[0,0,0,0,0,0,0,0,0,0,0,0,0,0,0,0,0,0,0,0,0,0,0,0,0],"id":1,"left_children":[1,3,5,7,9,11,13,15,-1,-1,-1,-1,-1,17,-1,19,-1,-1,21,-1,-1,23,-1,-1,-1],"loss_changes":[4.153572E1,2.717329E1,1.911601E1,1.1075369E1,3.371601E0,1.1493149E0,1.8985779E1,8.854509E0,0E0,0E0,0E0,0E0,0E0,7.8462286E0,0E0,4.3701925E0,0E0,0E0,1.0027363E1,0E0,0E0,4.627842E0,0E0,0E0,0E0],"parents":[2147483647,0,0,1,1,2,2,3,3,4,4,5,5,6,6,7,7,13,13,15,15,18,18,21,21],"right_children":[2,4,6,8,10,12,14,16,-1,-1,-1,-1,-1,18,-1,20,-1,-1,22,-1,-1,24,-1,-1,-1],"split_conditions":[5.1120687E-1,4.6500337E-4,-4.3261867E-2,2.2679418E-1,-4.3892864E-2,2.750446E-1,2.0925596E-1,1E0,3.927047E-2,-8.452283E-2,-3.4564234E-2,8.023011E-2,3.8945537E-2,1.7120028E-1,-5.4897036E-2,2.3045854E-1,-6.830742E-2,-1.6357461E-2,3.4437644E-1,3.0249327E-2,-2.3500381E-2,5.418812E-1,8.221806E-2,-1.8260721E-2,3.5501E-2],"split_indices":[39,1,10,3,5,12,8,27,0,0,0,0,0,42,0,11,0,0,2,0,0,18,0,0,0],"split_type":[0,0,0,0,0,0,0,0,0,0,0,0,0,0,0,0,0,0,0,0,0,0,0,0,0],"sum_hessian":[1.09828125E2,5.336836E1,5.6459766E1,2.9384125E1,2.3984236E1,1.8108324E1,3.835144E1,1.9199856E1,1.018427E1,1.6739334E1,7.244901E0,1.1656094E1,6.4522295E0,2.9860989E1,8.490453E0,1.3218719E1,5.981137E0,7.470463E0,2.2390526E1,5.978832E0,7.2398868E0,1.4437059E1,7.9534674E0,5.9797835E0,8.457275E0],"tree_param":{"num_deleted":"0","num_feature":"48","num_nodes":"25","size_leaf_vector":"1"}},{"base_weights":[1.2689677E-2,-5.7319903E-1,6.138871E-1,7.9316705E-2,-1.301825E0,7.110247E-2,3.4233326E-1,-5.987532E-2,5.252126E-1,-1.805661E-2,-8.040205E-2,6.8451774E-1,-3.8641956E-2,8.1239945E-1,-1.7116638E-2,-4.6625338E-3,9.3491924E-1,1.65183E-2,6.429335E-2,4.548729E-3,1.1421E0,1.9958502E-2,6.8243794E-2],"categories":[],"categories_nodes":[],"categories_segments":[],"categories_sizes":[],"default_left":[0,0,0,0,0,0,0,0,0,0,0,0,0,0,0,0,0,0,0,0,0,0,0],"id":2,"left_children":[1,3,5,7,9,-1,11,-1,13,-1,-1,15,-1,17,-1,-1,19,-1,-1,-1,21,-1,-1],"loss_changes":[3.9583225E1,2.7246859E1,1.1523872E1,1.812746E1,6.9944E0,0E0,1.6919386E1,0E0,6.2101526E0,0E0,0E0,6.692465E0,0E0,3.551138E0,0E0,0E0,4.234434E0,0E0,0E0,0E0,2.6395378E0,0E0,0E0],"parents":[2147483647,0,0,1,1,2,2,3,3,4,4,6,6,8,8,11,11,13,13,16,16,20,20],"right_children":[2,4,6,8,10,-1,12,-1,14,-1,-1,16,-1,18,-1,-1,20,-1,-1,-1,22,-1,-1],"split_conditions":[3.932131E-1,4.6500337E-4,-5.7536315E-2,-6.912211E-2,9.30372E-3,7.110247E-2,2.0925596E-1,-5.987532E-2,3.7797073E-1,-1.805661E-2,-8.040205E-2,1.7171334E-1,-3.8641956E-2,-3.236336E-4,-1.7116638E-2,-4.6625338E-3,9.793368E-1,1.65183E-2,6.429335E-2,4.548729E-3,-9.8909795E-2,1.9958502E-2,6.8243794E-2],"split_indices":[47,1,10,47,47,0,8,0,0,0,0,42,0,47,0,0,39,0,0,0,16,0,0],"split_type":[0,0,0,0,0,0,0,0,0,0,0,0,0,0,0,0,0,0,0,0,0,0,0],"sum_hessian":[1.10366844E2,5.583441E1,5.453243E1,2.9853354E1,2.5981058E1,1.2556998E1,4.1975433E1,7.232681E0,2.2620672E1,6.9958305E0,1.8985228E1,3.2483807E1,9.491627E0,1.712917E1,5.4915023E0,7.9667215E0,2.4517084E1,9.433729E0,7.6954403E0,5.2111993E0,1.9305883E1,5.2012005E0,1.4104683E1],"tree_param":{"num_deleted":"0","num_feature":"48","num_nodes":"23","size_leaf_vector":"1"}},{"base_weights":[-3.4700364E-2,-5.5680025E-1,5.3890526E-1,-7.316128E-1,4.6910044E-2,1.0830799E0,1.16865076E-1,5.9686963E-2,-1.1890904E0,1.7040877E-2,1.2664955E0,-6.185263E-2,4.9650884E-1,-4.418641E-2,6.918504E-1,1.7540371E-2,-1.4789422E0,7.359066E-2,3.6157046E-2,-2.203739E-2,7.9136604E-1,6.279128E-2,-8.6888345E-4,-1.6761329E0,-3.310808E-2,-2.6853771E-3,1.1205361E0,-9.1047764E-2,-4.898126E-2,2.8650984E-2,6.859771E-2],"categories":[],"categories_nodes":[],"categories_segments":[],"categories_sizes":[],"default_left":[0,0,0,0,0,0,0,0,0,0,0,0,0,0,0,0,0,0,0,0,0,0,0,0,0,0,0,0,0,0,0],"id":3,"left_children":[1,3,5,7,-1,9,11,13,15,-1,17,-1,19,-1,21,-1,23,-1,-1,-1,25,-1,-1,27,-1,-1,29,-1,-1,-1,-1],"loss_changes":[3.437548E1,1.638442E1,1.230015E1,1.9902325E1,0E0,2.625782E0,1.6984598E1,1.30132E1,1.6094547E1,0E0,7.776165E-1,0E0,7.5021663E0,0E0,5.383472E0,0E0,3.391838E0,0E0,0E0,0E0,5.73936E0,0E0,0E0,2.4928284E-1,0E0,0E0,1.0219269E0,0E0,0E0,0E0,0E0],"parents":[2147483647,0,0,1,1,2,2,3,3,5,5,6,6,7,7,8,8,10,10,12,12,14,14,16,16,20,20,23,23,26,26],"right_children":[2,4,6,8,-1,10,12,14,16,-1,18,-1,20,-1,22,-1,24,-1,-1,-1,26,-1,-1,28,-1,-1,30,-1,-1,-1,-1],"split_conditions":[4.2158112E-2,1.7510664E-1,4.0189213E-1,2.9011443E-1,4.6910044E-2,-1.078037E-1,1E0,-5.895829E-2,2.3356962E-1,1.7040877E-2,3.4475732E-1,-6.185263E-2,2.6025426E-1,-4.418641E-2,4.4519752E-1,1.7540371E-2,3.6986258E-2,7.359066E-2,3.6157046E-2,-2.203739E-2,4.28359E-1,6.279128E-2,-8.6888345E-4,1.8149747E-1,-3.310808E-2,-2.6853771E-3,5.1565986E-2,-9.1047764E-2,-4.898126E-2,2.8650984E-2,6.859771E-2],"split_indices":[4,42,19,12,0,5,47,47,2,0,0,0,2,0,18,0,4,0,0,0,14,0,0,3,0,0,4,0,0,0,0],"split_type":[0,0,0,0,0,0,0,0,0,0,0,0,0,0,0,0,0,0,0,0,0,0,0,0,0,0,0,0,0,0,0],"sum_hessian":[1.1277619E2,5.914533E1,5.363086E1,5.3470467E1,5.67486E0,2.2638172E1,3.0992687E1,1.9826857E1,3.3643612E1,5.1599207E0,1.7478252E1,6.235009E0,2.4757679E1,7.731921E0,1.2094934E1,5.2415414E0,2.8402071E1,1.1311263E1,6.166989E0,5.725193E0,1.9032486E1,6.386624E0,5.708311E0,2.1932482E1,6.46959E0,5.48471E0,1.3547775E1,1.6701763E1,5.230718E0,5.420463E0,8.127313E0],"tree_param":{"num_deleted":"0","num_feature":"48","num_nodes":"31","size_leaf_vector":"1"}},{"base_weights":[-1.8061237E-2,-5.3011733E-1,5.6520367E-1,1.03106454E-1,-1.2845485E0,6.411542E-2,3.06059E-1,-4.9761735E-2,4.188364E-1,3.251049E-3,-7.974459E-2,6.81858E-1,-5.1122334E-2,9.166519E-1,-3.0596915E-1,-7.066605E-3,9.0175325E-1,2.4021752E-2,7.4686155E-2,-4.4682246E-2,1.808115E-2,1.1247681E-2,1.0531412E0,2.9280601E-2,6.999531E-2],"categories":[],"categories_nodes":[],"categories_segments":[],"categories_sizes":[],"default_left":[0,0,0,0,0,0,0,0,0,0,0,0,0,0,0,0,0,0,0,0,0,0,0,0,0],"id":4,"left_children":[1,3,5,7,9,-1,11,-1,13,-1,-1,15,-1,17,19,-1,21,-1,-1,-1,-1,-1,23,-1,-1],"loss_changes":[3.486679E1,2.9986681E1,9.577681E0,1.2390632E1,1.22145195E1,0E0,2.1358576E1,0E0,1.0344444E1,0E0,0E0,6.1717978E0,0E0,3.3056488E0,5.0669737E0,0E0,2.3250313E0,0E0,0E0,0E0,0E0,0E0,2.39608E0,0E0,0E0],"parents":[2147483647,0,0,1,1,2,2,3,3,4,4,6,6,8,8,11,11,13,13,14,14,16,16,22,22],"right_children":[2,4,6,8,10,-1,12,-1,14,-1,-1,16,-1,18,20,-1,22,-1,-1,-1,-1,-1,24,-1,-1],"split_conditions":[3.932131E-1,4.5169818E-1,-5.7536315E-2,-6.912211E-2,1E0,6.411542E-2,2.0925596E-1,-4.9761735E-2,-1.4860595E-3,3.251049E-3,-7.974459E-2,1.7171334E-1,-5.1122334E-2,-7.9320336E-4,1.3801685E-1,-7.066605E-3,9.7691965E-1,2.4021752E-2,7.4686155E-2,-4.4682246E-2,1.808115E-2,1.1247681E-2,-7.870108E-2,2.9280601E-2,6.999531E-2],"split_indices":[47,14,10,47,28,0,8,0,1,0,0,42,0,47,3,0,39,0,0,0,0,0,5,0,0],"split_type":[0,0,0,0,0,0,0,0,0,0,0,0,0,0,0,0,0,0,0,0,0,0,0,0,0],"sum_hessian":[1.1475092E2,6.1245365E1,5.3505558E1,3.3694786E1,2.7550577E1,1.3052522E1,4.0453037E1,6.972032E0,2.6722754E1,5.2385025E0,2.2312075E1,3.1971241E1,8.481795E0,1.5766909E1,1.0955845E1,6.719381E0,2.5251862E1,1.0121638E1,5.645271E0,5.7262545E0,5.2295904E0,5.1910586E0,2.0060802E1,9.810656E0,1.0250147E1],"tree_param":{"num_deleted":"0","num_feature":"48","num_nodes":"25","size_leaf_vector":"1"}},{"base_weights":[-3.1586554E-2,-5.2981746E-1,4.8906443E-1,5.357779E-2,-7.3805404E-1,-3.4962896E-2,6.434552E-1,3.0083347E-2,-9.2761606E-1,1.2390884E0,3.3343875E-1,-1.0903594E0,1.3466601E-2,7.505555E-2,3.5165183E-2,5.319722E-1,-3.2449972E-2,-3.7873074E-1,-1.3900115E0,-1.51439905E-2,7.5792354E-1,-7.236576E-2,2.1262504E-2,-7.7284925E-2,-4.081139E-2,4.6029114E-3,4.8908565E-2],"categories":[],"categories_nodes":[],"categories_segments":[],"categories_sizes":[],"default_left":[0,0,0,0,0,0,0,0,0,0,0,0,0,0,0,0,0,0,0,0,0,0,0,0,0,0,0],"id":5,"left_children":[1,3,5,-1,7,-1,9,-1,11,13,15,17,-1,-1,-1,19,-1,21,23,-1,25,-1,-1,-1,-1,-1,-1],"loss_changes":[3.014161E1,2.0577251E1,1.0855139E1,0E0,1.4112509E1,0E0,8.812977E0,0E0,9.551174E0,1.0986576E0,7.1405344E0,8.196651E0,0E0,0E0,0E0,5.8712387E0,0E0,1.2608215E1,1.0834846E0,0E0,3.282671E0,0E0,0E0,0E0,0E0,0E0,0E0],"parents":[2147483647,0,0,1,1,2,2,4,4,6,6,8,8,9,9,10,10,11,11,15,15,17,17,18,18,20,20],"right_children":[2,4,6,-1,8,-1,10,-1,12,14,16,18,-1,-1,-1,20,-1,22,24,-1,26,-1,-1,-1,-1,-1,-1],"split_conditions":[4.2303793E-2,2.361988E-1,-1.2922409E-1,5.357779E-2,1.2270478E-1,-3.4962896E-2,-5.722019E-2,3.0083347E-2,1.6516674E-1,-4.5783315E-2,2.0925596E-1,-1.4600672E-3,1.3466601E-2,7.505555E-2,3.5165183E-2,9.390004E-1,-3.2449972E-2,1E0,3.5554666E-2,-1.51439905E-2,1.295721E-1,-7.236576E-2,2.1262504E-2,-7.7284925E-2,-4.081139E-2,4.6029114E-3,4.8908565E-2],"split_indices":[4,2,5,0,12,0,10,0,42,5,8,1,0,0,0,39,0,28,4,0,8,0,0,0,0,0,0],"split_type":[0,0,0,0,0,0,0,0,0,0,0,0,0,0,0,0,0,0,0,0,0,0,0,0,0,0,0],"sum_hessian":[1.1418083E2,5.8435818E1,5.5745014E1,6.192029E0,5.224379E1,5.9295225E0,4.9815495E1,6.141003E0,4.6102787E1,1.5916253E1,3.389924E1,4.0736618E1,5.3661695E0,9.353588E0,6.5626655E0,2.8666542E1,5.2326984E0,1.2840346E1,2.789627E1,5.939192E0,2.272735E1,5.222813E0,7.6175337E0,2.0473083E1,7.423188E0,6.114291E0,1.6613058E1],"tree_param":{"num_deleted":"0","num_feature":"48","num_nodes":"27","size_leaf_vector":"1"}},{"base_weights":[-5.082289E-4,-4.9879256E-1,5.2928823E-1,3.4473073E-2,-6.813768E-1,-2.906918E-2,6.586578E-1,3.8039282E-2,-8.7801933E-1,1.2409E0,3.6673298E-1,-1.0238796E0,2.1821044E-3,7.309165E-2,4.0993106E-2,5.672154E-1,-3.0976046E-2,-1.1749628E0,-6.2200753E-3,-9.21354E-3,8.125074E-1,-3.3723634E-2,-6.979253E-2,7.059856E-3,5.3123225E-2],"categories":[],"categories_nodes":[],"categories_segments":[],"categories_sizes":[],"default_left":[0,0,0,0,0,0,0,0,0,0,0,0,0,0,0,0,0,0,0,0,0,0,0,0,0],"id":6,"left_children":[1,3,5,-1,7,-1,9,-1,11,13,15,17,-1,-1,-1,19,-1,21,-1,-1,23,-1,-1,-1,-1],"loss_changes":[2.9855272E1,1.3135392E1,8.253498E0,0E0,1.5194479E1,0E0,7.808338E0,0E0,6.268322E0,6.3272476E-2,7.1766706E0,5.088337E0,0E0,0E0,0E0,5.6163874E0,0E0,2.5643044E0,0E0,0E0,3.4860659E0,0E0,0E0,0E0,0E0],"parents":[2147483647,0,0,1,1,2,2,4,4,6,6,8,8,9,9,10,10,11,11,15,15,17,17,20,20],"right_children":[2,4,6,-1,8,-1,10,-1,12,14,16,18,-1,-1,-1,20,-1,22,-1,-1,24,-1,-1,-1,-1],"split_conditions":[4.2158112E-2,2.520506E-1,-1.2537679E-1,3.4473073E-2,1.2270478E-1,-2.906918E-2,-5.722019E-2,3.8039282E-2,2.2787552E-1,-4.1503328E-1,2.231492E-1,1E0,2.1821044E-3,7.309165E-2,4.0993106E-2,9.7222763E-1,-3.0976046E-2,2.9391026E-1,-6.2200753E-3,-9.21354E-3,4.041961E-1,-3.3723634E-2,-6.979253E-2,7.059856E-3,5.3123225E-2],"split_indices":[4,2,5,0,12,0,10,0,3,16,8,47,0,0,0,39,0,12,0,0,0,0,0,0,0],"split_type":[0,0,0,0,0,0,0,0,0,0,0,0,0,0,0,0,0,0,0,0,0,0,0,0,0],"sum_hessian":[1.1110423E2,5.7382294E1,5.3721943E1,7.200139E0,5.0182156E1,5.159481E0,4.856246E1,5.6161666E0,4.4565987E1,1.501728E1,3.354518E1,3.8474655E1,6.091332E0,8.072094E0,6.9451857E0,2.8315561E1,5.22962E0,3.2584137E1,5.890521E0,6.9289255E0,2.1386635E1,1.1357151E1,2.1226984E1,6.3357244E0,1.5050911E1],"tree_param":{"num_deleted":"0","num_feature":"48","num_nodes":"25","size_leaf_vector":"1"}},{"base_weights":[-2.3200035E-2,-5.339966E-1,5.385944E-1,-9.036782E-1,3.420098E-1,6.370254E-2,2.5392917E-1,2.1014942E-2,-1.1037104E0,9.821402E-1,-4.5794662E-2,5.403933E-1,-3.646447E-2,-6.895239E-1,-7.417607E-2,2.5162457E-2,6.6618316E-2,1.6140908E-1,1.0522945E0,-6.1198574E-2,-0E0,-1.0840484E-1,3.952853E-2,7.2801165E-2,1.6108543E-2,-2.9425217E-2,3.142726E-2],"categories":[],"categories_nodes":[],"categories_segments":[],"categories_sizes":[],"default_left":[0,0,0,0,0,0,0,0,0,0,0,0,0,0,0,0,0,0,0,0,0,0,0,0,0,0,0],"id":7,"left_children":[1,3,5,7,9,-1,11,-1,13,15,-1,17,-1,19,-1,-1,-1,21,23,-1,-1,25,-1,-1,-1,-1,-1],"loss_changes":[3.2627937E1,1.9674334E1,1.0844877E1,1.1730858E1,1.56739E1,0E0,1.1735191E1,0E0,4.592331E0,1.274272E0,0E0,5.8947506E0,0E0,7.323369E0,0E0,0E0,0E0,3.483707E0,3.2649918E0,0E0,0E0,5.494748E0,0E0,0E0,0E0,0E0,0E0],"parents":[2147483647,0,0,1,1,2,2,3,3,4,4,6,6,8,8,9,9,11,11,13,13,17,17,18,18,21,21],"right_children":[2,4,6,8,10,-1,12,-1,14,16,-1,18,-1,20,-1,-1,-1,22,24,-1,-1,26,-1,-1,-1,-1,-1],"split_conditions":[3.932131E-1,2.2337535E-1,-5.7536315E-2,2.2496463E-1,-2.5419846E-2,6.370254E-2,2.0925596E-1,2.1014942E-2,4.3863007E-1,-1.2534206E-2,-4.5794662E-2,3.4437644E-1,-3.646447E-2,-3.236336E-4,-7.417607E-2,2.5162457E-2,6.6618316E-2,9.9957263E-1,4.192207E-1,-6.1198574E-2,-0E0,1E0,3.952853E-2,7.2801165E-2,1.6108543E-2,-2.9425217E-2,3.142726E-2],"split_indices":[47,3,10,2,10,0,8,0,0,1,0,2,0,47,0,0,0,39,2,0,0,7,0,0,0,0,0],"split_type":[0,0,0,0,0,0,0,0,0,0,0,0,0,0,0,0,0,0,0,0,0,0,0,0,0,0,0],"sum_hessian":[1.1170034E2,5.8624798E1,5.3075542E1,4.1284836E1,1.733996E1,1.374285E1,3.933269E1,5.20865E0,3.6076187E1,1.1689863E1,5.6500964E0,3.088603E1,8.446661E0,1.8729868E1,1.7346317E1,6.087885E0,5.6019783E0,1.8615084E1,1.2270946E1,1.0149944E1,8.579925E0,1.3496088E1,5.118996E0,7.1732516E0,5.097694E0,8.376313E0,5.1197743E0],"tree_param":{"num_deleted":"0","num_feature":"48","num_nodes":"27","size_leaf_vector":"1"}},{"base_weights":[-3.0174728E-2,-6.793081E-1,3.504244E-1,2.9950568E-2,-8.884678E-1,8.172642E-1,-0E0,-1.132069E-3,-1.1789649E0,2.0050855E-1,1.1152663E0,-1.0192618E0,4.0947708E-1,-6.995622E-2,-1.4626235E-2,2.4696918E-2,-5.465223E-3,6.657858E-2,3.0964186E-2,-7.343368E-2,-1.5815562E-2,-1.618115E-2,5.7689524E-1,1.0980074E-1,1.0220261E0,-1.711736E-2,2.678734E-2,2.5586337E-2,6.5307125E-2],"categories":[],"categories_nodes":[],"categories_segments":[],"categories_sizes":[],"default_left":[0,0,0,0,0,0,0,0,0,0,0,0,0,0,0,0,0,0,0,0,0,0,0,0,0,0,0,0,0],"id":8,"left_children":[1,3,5,-1,7,9,11,-1,13,15,17,19,21,-1,-1,-1,-1,-1,-1,-1,-1,-1,23,25,27,-1,-1,-1,-1],"loss_changes":[2.79245E1,1.1739502E1,1.15725975E1,0E0,9.008284E0,5.232559E0,1.7783352E1,0E0,4.7198753E0,1.1135981E0,1.1441536E0,3.2079887E0,3.9591336E0,0E0,0E0,0E0,0E0,0E0,0E0,0E0,0E0,0E0,5.040066E0,2.8195713E0,9.9652576E-1,0E0,0E0,0E0,0E0],"parents":[2147483647,0,0,1,1,2,2,4,4,5,5,6,6,8,8,9,9,10,10,11,11,12,12,22,22,23,23,24,24],"right_children":[2,4,6,-1,8,10,12,-1,14,16,18,20,22,-1,-1,-1,-1,-1,-1,-1,-1,-1,24,26,28,-1,-1,-1,-1],"split_conditions":[3.6417156E-2,2.361988E-1,4.021458E-1,2.9950568E-2,2.9577842E-1,-7.9320336E-4,1E0,-1.132069E-3,9.1399664E-1,4.3471327E-1,2.8013712E-1,4.3813512E-1,9.7691965E-1,-6.995622E-2,-1.4626235E-2,2.4696918E-2,-5.465223E-3,6.657858E-2,3.0964186E-2,-7.343368E-2,-1.5815562E-2,-1.618115E-2,5.354124E-1,-8.7965794E-2,5.0882798E-2,-1.711736E-2,2.678734E-2,2.5586337E-2,6.5307125E-2],"split_indices":[4,2,19,0,19,47,47,0,15,18,15,2,39,0,0,0,0,0,0,0,0,0,18,16,4,0,0,0,0],"split_type":[0,0,0,0,0,0,0,0,0,0,0,0,0,0,0,0,0,0,0,0,0,0,0,0,0,0,0,0,0],"sum_hessian":[1.1093074E2,4.080811E1,7.0122635E1,5.408855E0,3.5399254E1,2.9402203E1,4.0720432E1,9.250454E0,2.61488E1,1.0232685E1,1.9169516E1,1.1190164E1,2.953027E1,2.0392796E1,5.756004E0,5.11584E0,5.1168456E0,1.2034681E1,7.134835E0,6.0748334E0,5.1153307E0,5.205556E0,2.4324713E1,1.2587473E1,1.1737241E1,6.087256E0,6.5002165E0,5.325406E0,6.4118347E0],"tree_param":{"num_deleted":"0","num_feature":"48","num_nodes":"29","size_leaf_vector":"1"}},{"base_weights":[5.7397548E-2,-3.52748E-1,4.572021E-1,4.2411346E-2,-5.292228E-1,9.1680205E-1,6.748439E-2,2.399278E-2,-6.634331E-1,5.945452E-2,5.135863E-1,-4.241462E-1,6.5014446E-1,-2.3929945E-1,-1.214688E0,-0E0,4.336273E-2,9.137022E-3,-5.2386213E-2,-0E0,4.9542945E-2,-9.7570753E-1,3.9208487E-1,-7.081994E-2,-2.7198616E-2,-1.9334558E-2,2.0620285E-2,-2.0027691E-2,-6.592386E-2,4.066316E-2,-9.718774E-3],"categories":[],"categories_nodes":[],"categories_segments":[],"categories_sizes":[],"default_left":[0,0,0,0,0,0,0,0,0,0,0,0,0,0,0,0,0,0,0,0,0,0,0,0,0,0,0,0,0,0,0],"id":9,"left_children":[1,3,5,-1,7,9,11,-1,13,-1,15,17,19,21,23,-1,-1,25,-1,-1,-1,27,29,-1,-1,-1,-1,-1,-1,-1,-1],"loss_changes":[1.823114E1,1.2032366E1,9.928958E0,0E0,6.901148E0,2.035139E0,9.372881E0,0E0,9.685059E0,0E0,2.171912E0,4.894016E0,3.3034577E0,1.2442874E1,1.5330544E0,0E0,0E0,1.9716364E0,0E0,0E0,0E0,1.7199898E0,3.8108609E0,0E0,0E0,0E0,0E0,0E0,0E0,0E0,0E0],"parents":[2147483647,0,0,1,1,2,2,4,4,5,5,6,6,8,8,10,10,11,11,12,12,13,13,14,14,17,17,21,21,22,22],"right_children":[2,4,6,-1,8,10,12,-1,14,-1,16,18,20,22,24,-1,-1,26,-1,-1,-1,28,30,-1,-1,-1,-1,-1,-1,-1,-1],"split_conditions":[5.1120687E-1,1.0471565E-1,-1.2334242E-2,4.2411346E-2,2.559755E-1,3.1994933E-1,5.687239E-1,2.399278E-2,4.5440328E-1,5.945452E-2,4.380852E-1,1.6564193E-1,9.7655785E-1,-4.6779978E-1,5.32516E-1,-0E0,4.336273E-2,9.979273E-1,-5.2386213E-2,-0E0,4.9542945E-2,4.2778963E-1,3.7217885E-1,-7.081994E-2,-2.7198616E-2,-1.9334558E-2,2.0620285E-2,-2.0027691E-2,-6.592386E-2,4.066316E-2,-9.718774E-3],"split_indices":[39,12,10,0,2,12,18,0,19,0,12,8,39,13,2,0,0,39,0,0,0,18,19,0,0,0,0,0,0,0,0],"split_type":[0,0,0,0,0,0,0,0,0,0,0,0,0,0,0,0,0,0,0,0,0,0,0,0,0,0,0,0,0,0,0],"sum_hessian":[1.0913313E2,5.3804523E1,5.532861E1,6.332999E0,4.7471523E1,2.4649734E1,3.0678873E1,5.1828756E0,4.2288647E1,1.3402268E1,1.1247466E1,1.6693684E1,1.398519E1,2.4813063E1,1.7475586E1,5.064621E0,6.182845E0,1.0336509E1,6.357175E0,5.169034E0,8.816156E0,1.127529E1,1.3537773E1,1.2465769E1,5.0098166E0,5.111981E0,5.224528E0,5.129132E0,6.1461577E0,7.7533393E0,5.7844343E0],"tree_param":{"num_deleted":"0","num_feature":"48","num_nodes":"31","size_leaf_vector":"1"}},{"base_weights":[-2.1805443E-2,-4.3529657E-1,5.310679E-1,-7.979924E-1,2.5755033E-1,6.7914283E-1,-1.5164219E-2,2.5175009E-2,-9.905231E-1,5.2433677E-2,-4.6432894E-2,8.5546106E-1,-1.6779149E-2,-2.656567E-1,-1.3329207E0,-2.9219E-2,1.9670699E-2,6.797174E-2,5.7477343E-1,1.964262E-2,-5.3490926E-2,-7.423934E-2,-3.7334993E-2,8.9093965E-1,2.2921327E-4,1.6017152E-2,5.865881E-2],"categories":[],"categories_nodes":[],"categories_segments":[],"categories_sizes":[],"default_left":[0,0,0,0,0,0,0,0,0,0,0,0,0,0,0,0,0,0,0,0,0,0,0,0,0,0,0],"id":10,"left_children":[1,3,5,7,9,11,-1,-1,13,-1,15,17,-1,19,21,-1,-1,-1,23,-1,-1,-1,-1,25,-1,-1,-1],"loss_changes":[2.5979408E1,1.662243E1,6.2426825E0,1.1342133E1,5.688657E0,7.7907314E0,0E0,0E0,8.900429E0,0E0,4.39151E0,4.0964355E0,0E0,7.643129E0,9.312248E-1,0E0,0E0,0E0,4.39256E0,0E0,0E0,0E0,0E0,2.0339127E0,0E0,0E0,0E0],"parents":[2147483647,0,0,1,1,2,2,3,3,4,4,5,5,8,8,10,10,11,11,13,13,14,14,18,18,23,23],"right_children":[2,4,6,8,10,12,-1,-1,14,-1,16,18,-1,20,22,-1,-1,-1,24,-1,-1,-1,-1,26,-1,-1,-1],"split_conditions":[2.2337535E-1,3.932131E-1,6.0962826E-1,2.2496463E-1,4.617264E-1,3.605131E-1,-1.5164219E-2,2.5175009E-2,2.9577842E-1,5.2433677E-2,1.7200671E-1,-3.4693903E-1,-1.6779149E-2,1E0,1.8149747E-1,-2.9219E-2,1.9670699E-2,6.797174E-2,1.7831776E-1,1.964262E-2,-5.3490926E-2,-7.423934E-2,-3.7334993E-2,2.6039225E-1,2.2921327E-4,1.6017152E-2,5.865881E-2],"split_indices":[3,47,0,2,18,3,0,0,19,0,42,16,0,27,3,0,0,0,8,0,0,0,0,3,0,0,0],"split_type":[0,0,0,0,0,0,0,0,0,0,0,0,0,0,0,0,0,0,0,0,0,0,0,0,0,0,0],"sum_hessian":[1.11672295E2,6.4114746E1,4.755755E1,4.2079353E1,2.203539E1,4.064928E1,6.90827E0,5.147575E0,3.693178E1,5.527955E0,1.6507437E1,3.4849373E1,5.799906E0,1.2511812E1,2.4419968E1,7.380094E0,9.127342E0,1.0964017E1,2.3885359E1,7.0917053E0,5.420107E0,1.804249E1,6.377478E0,1.4890666E1,8.994692E0,5.7517347E0,9.138932E0],"tree_param":{"num_deleted":"0","num_feature":"48","num_nodes":"27","size_leaf_vector":"1"}},{"base_weights":[-7.343135E-2,-5.3469384E-1,4.579414E-1,-4.919331E-2,-1.1360378E0,1.0887543E0,1.9430925E-1,-7.359003E-1,3.8563967E-1,-7.541411E-2,-2.1443749E-2,6.39294E-2,3.140728E-2,-2.9575571E-2,5.258628E-1,-1.1134117E-2,-5.7736367E-2,-1.5708067E-1,6.2213868E-2,2.920833E-1,5.5087943E-2,3.211511E-2,-4.7102697E-2,3.880973E-2,-7.6415553E-3],"categories":[],"categories_nodes":[],"categories_segments":[],"categories_sizes":[],"default_left":[0,0,0,0,0,0,0,0,0,0,0,0,0,0,0,0,0,0,0,0,0,0,0,0,0],"id":11,"left_children":[1,3,5,7,9,11,13,15,17,-1,-1,-1,-1,-1,19,-1,-1,21,-1,23,-1,-1,-1,-1,-1],"loss_changes":[2.5479504E1,1.6075392E1,7.6867743E0,9.854111E0,5.668213E0,2.2131348E-1,9.519431E0,2.359439E0,9.67974E0,0E0,0E0,0E0,0E0,0E0,2.970942E0,0E0,0E0,8.882826E0,0E0,4.406077E0,0E0,0E0,0E0,0E0,0E0],"parents":[2147483647,0,0,1,1,2,2,3,3,4,4,5,5,6,6,7,7,8,8,14,14,17,17,19,19],"right_children":[2,4,6,8,10,12,14,16,18,-1,-1,-1,-1,-1,20,-1,-1,22,-1,24,-1,-1,-1,-1,-1],"split_conditions":[3.932131E-1,4.5169818E-1,-4.5043774E-2,1.7296064E-1,-4.4719588E-2,2.6371104E-1,1.4051942E-3,2.9464814E-1,-3.236336E-4,-7.541411E-2,-2.1443749E-2,6.39294E-2,3.140728E-2,-2.9575571E-2,1.5086792E-1,-1.1134117E-2,-5.7736367E-2,1.3825443E-1,6.2213868E-2,-4.4105354E-1,5.5087943E-2,3.211511E-2,-4.7102697E-2,3.880973E-2,-7.6415553E-3],"split_indices":[47,14,10,3,5,12,1,19,47,0,0,0,0,0,9,0,0,12,0,9,0,0,0,0,0],"split_type":[0,0,0,0,0,0,0,0,0,0,0,0,0,0,0,0,0,0,0,0,0,0,0,0,0],"sum_hessian":[1.01924225E2,5.4658985E1,4.7265244E1,3.0933025E1,2.372596E1,1.2896841E1,3.43684E1,1.1813786E1,1.911924E1,1.4708998E1,9.016963E0,7.7215405E0,5.1753006E0,9.875838E0,2.4492561E1,6.104258E0,5.709528E0,1.2143975E1,6.975265E0,1.8616283E1,5.8762794E0,6.0436964E0,6.1002793E0,8.666469E0,9.949814E0],"tree_param":{"num_deleted":"0","num_feature":"48","num_nodes":"25","size_leaf_vector":"1"}},{"base_weights":[5.341512E-2,-2.9622835E-1,4.3184248E-1,2.138204E-1,-9.6294796E-1,1.0880989E0,1.7108475E-1,5.62142E-1,-3.297703E-2,-7.0956744E-2,-7.0766467E-3,6.362085E-2,3.0632937E-2,-3.0394483E-2,4.5635083E-1,9.4955176E-1,9.5604286E-2,1.7265888E-1,5.5115443E-2,2.762205E-2,5.890208E-2,2.791453E-2,-2.1989135E-2,-3.092715E-1,3.5793476E-2,-4.3808866E-2,1.1427623E-2],"categories":[],"categories_nodes":[],"categories_segments":[],"categories_sizes":[],"default_left":[0,0,0,0,0,0,0,0,0,0,0,0,0,0,0,0,0,0,0,0,0,0,0,0,0,0,0],"id":12,"left_children":[1,3,5,7,9,11,13,15,-1,-1,-1,-1,-1,-1,17,19,21,23,-1,-1,-1,-1,-1,25,-1,-1,-1],"loss_changes":[1.4373025E1,1.9446926E1,8.620122E0,1.0298266E1,8.896891E0,3.06715E-1,8.850933E0,4.137777E0,0E0,0E0,0E0,0E0,0E0,0E0,4.988343E0,3.4379768E-1,3.2560523E0,5.867668E0,0E0,0E0,0E0,0E0,0E0,3.9076285E0,0E0,0E0,0E0],"parents":[2147483647,0,0,1,1,2,2,3,3,4,4,5,5,6,6,7,7,14,14,15,15,16,16,17,17,23,23],"right_children":[2,4,6,8,10,12,14,16,-1,-1,-1,-1,-1,-1,18,20,22,24,-1,-1,-1,-1,-1,26,-1,-1,-1],"split_conditions":[3.932131E-1,4.5169818E-1,-4.3261867E-2,1E0,-4.4719588E-2,-4.038479E-1,-1.1414115E-1,-1.7598483E-1,-3.297703E-2,-7.0956744E-2,-7.0766467E-3,6.362085E-2,3.0632937E-2,-3.0394483E-2,1E0,-7.9320336E-4,1.8473591E-1,9.9422544E-1,5.5115443E-2,2.762205E-2,5.890208E-2,2.791453E-2,-2.1989135E-2,3.8708556E-1,3.5793476E-2,-4.3808866E-2,1.1427623E-2],"split_indices":[47,14,10,27,5,16,16,16,0,0,0,0,0,0,7,47,8,39,0,0,0,0,0,13,0,0,0],"split_type":[0,0,0,0,0,0,0,0,0,0,0,0,0,0,0,0,0,0,0,0,0,0,0,0,0,0,0],"sum_hessian":[1.06558304E2,5.536106E1,5.119724E1,3.166571E1,2.3695353E1,1.3546937E1,3.7650303E1,2.2973902E1,8.69181E0,1.4688456E1,9.006896E0,8.402748E0,5.1441894E0,9.694923E0,2.7955378E1,1.1868619E1,1.1105283E1,2.0412647E1,7.54273E0,5.742944E0,6.1256747E0,6.034346E0,5.070936E0,1.0947085E1,9.465563E0,5.1136956E0,5.8333898E0],"tree_param":{"num_deleted":"0","num_feature":"48","num_nodes":"27","size_leaf_vector":"1"}},{"base_weights":[1.7724618E-2,-3.9058876E-1,5.08543E-1,3.6019262E-2,-5.910635E-1,8.9744616E-1,1.03263505E-1,-9.4112337E-1,9.464079E-2,5.471294E-1,6.29736E-2,-3.8213212E-2,4.3932858E-1,-3.0291498E-1,-6.426549E-2,4.294715E-2,-4.1120133E-1,1.2850203E-2,4.2251606E-2,7.091051E-1,-9.120686E-3,1.40827885E-2,-4.8695806E-2,-5.9924748E-2,2.1905929E-2,1.0651361E-2,4.86148E-2],"categories":[],"categories_nodes":[],"categories_segments":[],"categories_sizes":[],"default_left":[0,0,0,0,0,0,0,0,0,0,0,0,0,0,0,0,0,0,0,0,0,0,0,0,0,0,0],"id":13,"left_children":[1,3,5,-1,7,9,11,13,15,17,-1,-1,19,21,-1,-1,23,-1,-1,25,-1,-1,-1,-1,-1,-1,-1],"loss_changes":[2.1117016E1,1.3197288E1,7.3600645E0,0E0,1.1995991E1,2.19911E0,7.5107594E0,6.6554413E0,7.1474504E0,9.004545E-1,0E0,0E0,3.2912536E0,5.403387E0,0E0,0E0,8.025079E0,0E0,0E0,1.403574E0,0E0,0E0,0E0,0E0,0E0,0E0,0E0],"parents":[2147483647,0,0,1,1,2,2,4,4,5,5,6,6,7,7,8,8,9,9,12,12,13,13,16,16,19,19],"right_children":[2,4,6,-1,8,10,12,14,16,18,-1,-1,20,22,-1,-1,24,-1,-1,26,-1,-1,-1,-1,-1,-1,-1],"split_conditions":[2.1859403E-1,2.2109972E-1,-2.4376405E-2,3.6019262E-2,3.932131E-1,1E0,1E0,-1.4860595E-3,6.040246E-1,3.434941E-1,6.29736E-2,-3.8213212E-2,6.6949576E-2,1E0,-6.426549E-2,4.294715E-2,3.3297172E-1,1.2850203E-2,4.2251606E-2,5.0882798E-2,-9.120686E-3,1.40827885E-2,-4.8695806E-2,-5.9924748E-2,2.1905929E-2,1.0651361E-2,4.86148E-2],"split_indices":[3,2,10,0,47,28,47,1,11,0,0,0,4,27,0,0,13,0,0,4,0,0,0,0,0,0,0],"split_type":[0,0,0,0,0,0,0,0,0,0,0,0,0,0,0,0,0,0,0,0,0,0,0,0,0,0,0],"sum_hessian":[1.0332028E2,5.6400772E1,4.6919514E1,8.149017E0,4.8251755E1,2.3197874E1,2.372164E1,3.1793932E1,1.645782E1,1.32062645E1,9.99161E0,6.184663E0,1.7536978E1,1.1899636E1,1.9894295E1,6.35515E0,1.0102671E1,7.8042006E0,5.402064E0,1.2244406E1,5.292571E0,6.589838E0,5.3097987E0,5.0905266E0,5.0121446E0,5.0032806E0,7.241125E0],"tree_param":{"num_deleted":"0","num_feature":"48","num_nodes":"27","size_leaf_vector":"1"}},{"base_weights":[-3.2347824E-2,-4.0368125E-1,4.3954235E-1,4.47922E-2,-5.658176E-1,8.782365E-1,6.619067E-2,-9.601171E-1,1.6576415E-1,5.628523E-1,6.692441E-2,-4.277226E-2,4.031838E-1,-3.7091604E-1,-6.4922914E-2,2.7836023E-2,-1.5679117E-2,5.102063E-2,6.3636503E-3,-6.244239E-3,4.7770757E-2,6.85286E-3,-5.375668E-2],"categories":[],"categories_nodes":[],"categories_segments":[],"categories_sizes":[],"default_left":[0,0,0,0,0,0,0,0,0,0,0,0,0,0,0,0,0,0,0,0,0,0,0],"id":14,"left_children":[1,3,5,-1,7,9,11,13,15,17,-1,-1,19,21,-1,-1,-1,-1,-1,-1,-1,-1,-1],"loss_changes":[1.8135658E1,1.269542E1,7.2998476E0,0E0,1.5311171E1,2.063407E0,8.3083E0,6.1669197E0,3.7713947E0,2.574832E0,0E0,0E0,5.9299216E0,5.24165E0,0E0,0E0,0E0,0E0,0E0,0E0,0E0,0E0,0E0],"parents":[2147483647,0,0,1,1,2,2,4,4,5,5,6,6,7,7,8,8,9,9,12,12,13,13],"right_children":[2,4,6,-1,8,10,12,14,16,18,-1,-1,20,22,-1,-1,-1,-1,-1,-1,-1,-1,-1],"split_conditions":[2.2337535E-1,2.1191807E-1,4.021458E-1,4.47922E-2,3.932131E-1,-5.725056E-1,1E0,3.8828734E-1,-4.7295403E-2,4.292402E-1,6.692441E-2,-4.277226E-2,3.4437644E-1,1E0,-6.4922914E-2,2.7836023E-2,-1.5679117E-2,5.102063E-2,6.3636503E-3,-6.244239E-3,4.7770757E-2,6.85286E-3,-5.375668E-2],"split_indices":[3,2,19,0,47,9,47,14,5,18,0,0,2,27,0,0,0,0,0,0,0,0,0],"split_type":[0,0,0,0,0,0,0,0,0,0,0,0,0,0,0,0,0,0,0,0,0,0,0],"sum_hessian":[1.0150502E2,5.700437E1,4.450065E1,5.752886E0,5.1251484E1,1.971503E1,2.478562E1,3.3188328E1,1.8063158E1,1.3146606E1,6.5684233E0,6.1448855E0,1.8640734E1,1.2978634E1,2.0209692E1,9.974848E0,8.088311E0,5.6447577E0,7.501849E0,9.831847E0,8.808887E0,7.9252725E0,5.053362E0],"tree_param":{"num_deleted":"0","num_feature":"48","num_nodes":"23","size_leaf_vector":"1"}},{"base_weights":[6.279973E-2,-2.6433885E-1,5.1726055E-1,-6.118696E-1,2.450634E-1,9.457453E-1,-0E0,-8.470941E-1,-4.4595646E-3,6.808729E-1,-9.0344824E-2,1.131363E0,2.235923E-2,3.423282E-1,-3.2360286E-2,-6.7181434E-3,-1.0345505E0,2.8555555E-2,-2.9901957E-2,1.489834E-2,4.740608E-2,2.369244E-2,-3.4126546E-2,3.1922307E-2,6.4278156E-2,-1.29551245E-2,4.426456E-2,-6.2143296E-2,-2.4631403E-2],"categories":[],"categories_nodes":[],"categories_segments":[],"categories_sizes":[],"default_left":[0,0,0,0,0,0,0,0,0,0,0,0,0,0,0,0,0,0,0,0,0,0,0,0,0,0,0,0,0],"id":15,"left_children":[1,3,5,7,9,11,13,15,17,19,21,23,-1,25,-1,-1,27,-1,-1,-1,-1,-1,-1,-1,-1,-1,-1,-1,-1],"loss_changes":[1.5773523E1,1.1090067E1,9.888017E0,5.1996403E0,3.8590012E0,1.5888405E0,4.904901E0,3.2924023E0,4.258403E0,7.563529E-1,5.424577E0,2.7426147E-1,0E0,4.991631E0,0E0,0E0,1.5585918E0,0E0,0E0,0E0,0E0,0E0,0E0,0E0,0E0,0E0,0E0,0E0,0E0],"parents":[2147483647,0,0,1,1,2,2,3,3,4,4,5,5,6,6,7,7,8,8,9,9,10,10,11,11,13,13,16,16],"right_children":[2,4,6,8,10,12,14,16,18,20,22,24,-1,26,-1,-1,28,-1,-1,-1,-1,-1,-1,-1,-1,-1,-1,-1,-1],"split_conditions":[2.2679418E-1,1.9920218E-1,5.016517E-1,-2.329693E-2,9.912882E-1,2.318377E-1,1.7831776E-1,2.9833645E-1,4.9219476E-3,2.6843303E-1,-4.7806603E-1,-9.338048E-1,2.235923E-2,5.662204E-2,-3.2360286E-2,-6.7181434E-3,3.489441E-2,2.8555555E-2,-2.9901957E-2,1.489834E-2,4.740608E-2,2.369244E-2,-3.4126546E-2,3.1922307E-2,6.4278156E-2,-1.29551245E-2,4.426456E-2,-6.2143296E-2,-2.4631403E-2],"split_indices":[3,47,11,5,39,42,8,19,5,2,9,9,0,4,0,0,4,0,0,0,0,0,0,0,0,0,0,0,0],"split_type":[0,0,0,0,0,0,0,0,0,0,0,0,0,0,0,0,0,0,0,0,0,0,0,0,0,0,0,0,0],"sum_hessian":[1.0400655E2,6.0589893E1,4.3416656E1,3.601467E1,2.4575222E1,2.3341722E1,2.0074934E1,2.5557922E1,1.0456749E1,1.0369661E1,1.4205562E1,1.5938041E1,7.4036818E0,1.33915615E1,6.683372E0,5.7908096E0,1.9767113E1,5.2425947E0,5.2141542E0,5.2856545E0,5.0840063E0,7.290575E0,6.9149866E0,5.1772614E0,1.0760779E1,6.514352E0,6.87721E0,1.3210876E1,6.5562367E0],"tree_param":{"num_deleted":"0","num_feature":"48","num_nodes":"29","size_leaf_vector":"1"}},{"base_weights":[-6.640706E-2,-4.9649218E-1,3.9689913E-1,-8.307773E-1,1.11700505E-1,7.963995E-1,-3.893296E-3,5.5274046E-3,-1.0054673E0,5.005361E-1,-2.1635696E-2,8.832837E-3,5.644489E-2,5.541823E-1,-6.001562E-1,-2.5099266E-2,-6.109446E-2,7.2923354E-3,3.696231E-2,4.987647E-2,1.9314581E-3,-5.2822646E-2,-3.7350487E-3],"categories":[],"categories_nodes":[],"categories_segments":[],"categories_sizes":[],"default_left":[0,0,0,0,0,0,0,0,0,0,0,0,0,0,0,0,0,0,0,0,0,0,0],"id":16,"left_children":[1,3,5,7,9,11,13,-1,15,17,-1,-1,-1,19,21,-1,-1,-1,-1,-1,-1,-1,-1],"loss_changes":[1.9817577E1,1.0654314E1,7.739481E0,5.712513E0,4.2613573E0,4.6319227E0,8.570556E0,0E0,2.3154793E0,7.941532E-1,0E0,0E0,0E0,2.8781333E0,2.8119125E0,0E0,0E0,0E0,0E0,0E0,0E0,0E0,0E0],"parents":[2147483647,0,0,1,1,2,2,3,3,4,4,5,5,6,6,8,8,9,9,13,13,14,14],"right_children":[2,4,6,8,10,12,14,-1,16,18,-1,-1,-1,20,22,-1,-1,-1,-1,-1,-1,-1,-1],"split_conditions":[2.1859403E-1,3.932131E-1,-2.4376405E-2,2.4476933E-1,1.8149747E-1,-3.236336E-4,1.4865972E-1,5.5274046E-3,2.9833645E-1,9.901933E-1,-2.1635696E-2,8.832837E-3,5.644489E-2,8.311589E-1,1E0,-2.5099266E-2,-6.109446E-2,7.2923354E-3,3.696231E-2,4.987647E-2,1.9314581E-3,-5.2822646E-2,-3.7350487E-3],"split_indices":[3,47,10,2,3,47,8,0,19,40,0,0,0,11,47,0,0,0,0,0,0,0,0],"split_type":[0,0,0,0,0,0,0,0,0,0,0,0,0,0,0,0,0,0,0,0,0,0,0],"sum_hessian":[9.74164E1,5.059422E1,4.6822178E1,3.2519012E1,1.8075205E1,2.3079514E1,2.3742664E1,5.058073E0,2.7460941E1,1.0698398E1,7.3768063E0,8.698484E0,1.4381029E1,1.2213879E1,1.1528786E1,9.392305E0,1.8068634E1,5.1202807E0,5.578117E0,5.9598765E0,6.2540026E0,5.527733E0,6.0010524E0],"tree_param":{"num_deleted":"0","num_feature":"48","num_nodes":"23","size_leaf_vector":"1"}},{"base_weights":[1.0539865E-1,-1.9643489E-1,5.02384E-1,-3.925321E-1,5.977551E-1,9.734657E-1,-0E0,3.38733E-2,-5.40851E-1,5.4202266E-2,2.2936787E-3,2.1809887E-2,6.297235E-2,-3.3251267E-2,3.857201E-1,-7.897421E-1,2.791043E-2,-1.1737634E-2,3.805622E-2,-5.526591E-2,-5.176826E-1,4.3847762E-2,-3.5134654E-2,1.4360227E-2,-4.4269092E-2],"categories":[],"categories_nodes":[],"categories_segments":[],"categories_sizes":[],"default_left":[0,0,0,0,0,0,0,0,0,0,0,0,0,0,0,0,0,0,0,0,0,0,0,0,0],"id":17,"left_children":[1,3,5,7,9,11,13,-1,15,-1,-1,-1,-1,-1,17,19,21,-1,-1,-1,23,-1,-1,-1,-1],"loss_changes":[1.2098187E1,9.141062E0,1.04043865E1,7.7599773E0,2.9627595E0,2.750908E0,5.922717E0,0E0,5.991376E0,0E0,0E0,0E0,0E0,0E0,3.5984797E0,1.7651329E0,9.017629E0,0E0,0E0,0E0,5.548504E0,0E0,0E0,0E0,0E0],"parents":[2147483647,0,0,1,1,2,2,3,3,4,4,5,5,6,6,8,8,14,14,15,15,16,16,20,20],"right_children":[2,4,6,8,10,12,14,-1,16,-1,-1,-1,-1,-1,18,20,22,-1,-1,-1,24,-1,-1,-1,-1],"split_conditions":[2.2679418E-1,3.3297172E-1,-2.2038212E-2,1.2270478E-1,1.4288057E-1,-1.2534206E-2,9.476485E-1,3.38733E-2,3.932131E-1,5.4202266E-2,2.2936787E-3,2.1809887E-2,6.297235E-2,-3.3251267E-2,5.212133E-1,-4.2255434E-1,-9.020379E-3,-1.1737634E-2,3.805622E-2,-5.526591E-2,6.132552E-4,4.3847762E-2,-3.5134654E-2,1.4360227E-2,-4.4269092E-2],"split_indices":[3,13,10,12,3,1,39,0,47,0,0,0,0,0,18,13,10,0,0,0,1,0,0,0,0],"split_type":[0,0,0,0,0,0,0,0,0,0,0,0,0,0,0,0,0,0,0,0,0,0,0,0,0],"sum_hessian":[9.888781E1,5.6320118E1,4.2567688E1,4.5674156E1,1.0645963E1,2.158297E1,2.0984718E1,5.044001E0,4.0630154E1,5.0503654E0,5.5955977E0,8.496217E0,1.3086753E1,7.5289006E0,1.3455818E1,2.8114489E1,1.2515666E1,5.1131043E0,8.342714E0,1.1428095E1,1.6686394E1,5.7592807E0,6.7563853E0,5.2158794E0,1.1470514E1],"tree_param":{"num_deleted":"0","num_feature":"48","num_nodes":"25","size_leaf_vector":"1"}},{"base_weights":[3.360425E-2,-3.1593436E-1,4.0358827E-1,4.5208927E-2,-4.8719576E-1,-2.203813E-2,5.6178486E-1,3.3662193E-2,-6.6942245E-1,7.9971606E-1,1.8050078E-1,-9.716735E-1,-1.8948106E-1,4.3253934E-1,1.0734279E0,-1.46596385E-2,3.8442366E-2,-1.4601136E-2,-1.1515307E0,9.473383E-3,-2.5566781E-2,3.485296E-2,2.9348722E-4,2.6864374E-2,6.638594E-2,-6.821253E-2,-2.274733E-2],"categories":[],"categories_nodes":[],"categories_segments":[],"categories_sizes":[],"default_left":[0,0,0,0,0,0,0,0,0,0,0,0,0,0,0,0,0,0,0,0,0,0,0,0,0,0,0],"id":18,"left_children":[1,3,5,-1,7,-1,9,-1,11,13,15,17,19,21,23,-1,-1,-1,25,-1,-1,-1,-1,-1,-1,-1,-1],"loss_changes":[1.3459672E1,1.1556658E1,7.02203E0,0E0,1.0504655E1,0E0,3.6746216E0,0E0,5.744463E0,2.011528E0,5.301666E0,2.599537E0,2.2600415E0,1.391931E0,1.0281029E0,0E0,0E0,0E0,2.0822563E0,0E0,0E0,0E0,0E0,0E0,0E0,0E0,0E0],"parents":[2147483647,0,0,1,1,2,2,4,4,6,6,8,8,9,9,10,10,11,11,12,12,13,13,14,14,18,18],"right_children":[2,4,6,-1,8,-1,10,-1,12,14,16,18,20,22,24,-1,-1,-1,26,-1,-1,-1,-1,-1,-1,-1,-1],"split_conditions":[4.2356852E-2,2.2109972E-1,-1.1233194E-1,4.5208927E-2,1.3230357E-1,-2.203813E-2,4.8570195E-1,3.3662193E-2,1.7761645E-1,2.6039225E-1,1.4941229E-1,2.9391026E-1,4.5093063E-1,2.2037427E-1,3.5357097E-1,-1.46596385E-2,3.8442366E-2,-1.4601136E-2,1.448199E-1,9.473383E-3,-2.5566781E-2,3.485296E-2,2.9348722E-4,2.6864374E-2,6.638594E-2,-6.821253E-2,-2.274733E-2],"split_indices":[4,2,5,0,12,0,19,0,3,3,16,12,14,3,2,0,0,0,42,0,0,0,0,0,0,0,0],"split_type":[0,0,0,0,0,0,0,0,0,0,0,0,0,0,0,0,0,0,0,0,0,0,0,0,0,0,0],"sum_hessian":[1.0202365E2,5.2397476E1,4.9626175E1,5.8508697E0,4.6546608E1,7.449152E0,4.2177025E1,5.877125E0,4.0669483E1,2.5133419E1,1.7043606E1,2.4197674E1,1.647181E1,1.1992046E1,1.3141373E1,9.625531E0,7.418074E0,5.728867E0,1.8468807E1,7.611142E0,8.860667E0,6.86679E0,5.125257E0,5.3556957E0,7.7856774E0,1.3304032E1,5.1647744E0],"tree_param":{"num_deleted":"0","num_feature":"48","num_nodes":"27","size_leaf_vector":"1"}},{"base_weights":[1.2598475E-2,-2.6154006E-1,3.88204E-1,4.0028535E-2,-3.866148E-1,-1.2444808E-2,5.5646825E-1,-7.221392E-1,5.9724286E-2,9.212308E-1,1.380417E-1,-2.009324E-1,-1.0518999E0,5.099421E-1,-2.4199557E-2,1.6949488E-2,5.5987984E-2,3.881361E-2,-2.841382E-1,1.0124241E-2,-3.566075E-2,-6.2334906E-2,-2.2765692E-2,-5.0569805E-3,4.5389887E-2,-4.0903818E-2,1.4046836E-2],"categories":[],"categories_nodes":[],"categories_segments":[],"categories_sizes":[],"default_left":[0,0,0,0,0,0,0,0,0,0,0,0,0,0,0,0,0,0,0,0,0,0,0,0,0,0,0],"id":19,"left_children":[1,3,5,-1,7,-1,9,11,13,15,17,19,21,23,-1,-1,-1,-1,25,-1,-1,-1,-1,-1,-1,-1,-1],"loss_changes":[1.0430286E1,8.020864E0,4.7603927E0,0E0,8.042066E0,0E0,5.003912E0,4.895732E0,6.0085974E0,1.5584154E0,4.92711E0,2.913271E0,1.3879948E0,3.4443352E0,0E0,0E0,0E0,0E0,3.61475E0,0E0,0E0,0E0,0E0,0E0,0E0,0E0,0E0],"parents":[2147483647,0,0,1,1,2,2,4,4,6,6,7,7,8,8,9,9,10,10,11,11,12,12,13,13,18,18],"right_children":[2,4,6,-1,8,-1,10,12,14,16,18,20,22,24,-1,-1,-1,-1,26,-1,-1,-1,-1,-1,-1,-1,-1],"split_conditions":[2.2326584E-1,2.0716566E-1,-1.078037E-1,4.0028535E-2,5.248185E-1,-1.2444808E-2,5.122635E-1,3.8828734E-1,-4.7295403E-2,2.4759135E-1,-7.725619E-2,1E0,1.8149747E-1,2.7870253E-1,-2.4199557E-2,1.6949488E-2,5.5987984E-2,3.881361E-2,-4.108343E-2,1.0124241E-2,-3.566075E-2,-6.2334906E-2,-2.2765692E-2,-5.0569805E-3,4.5389887E-2,-4.0903818E-2,1.4046836E-2],"split_indices":[3,2,5,0,39,0,11,14,5,3,5,27,3,2,0,0,0,0,5,0,0,0,0,0,0,0,0],"split_type":[0,0,0,0,0,0,0,0,0,0,0,0,0,0,0,0,0,0,0,0,0,0,0,0,0,0,0],"sum_hessian":[9.9187386E1,5.736012E1,4.1827267E1,5.389896E0,5.1970222E1,8.514656E0,3.331261E1,2.9443174E1,2.2527048E1,1.7027914E1,1.6284697E1,1.2150754E1,1.729242E1,1.2457654E1,1.0069394E1,5.146268E0,1.1881646E1,6.2437897E0,1.0040907E1,7.0267763E0,5.123978E0,1.2088065E1,5.204354E0,5.107416E0,7.350238E0,5.0234733E0,5.017433E0],"tree_param":{"num_deleted":"0","num_feature":"48","num_nodes":"27","size_leaf_vector":"1"}},{"base_weights":[-5.3380072E-2,-3.2360375E-1,3.3350864E-1,-4.5580816E-1,3.6058005E-2,6.893785E-1,-7.5405546E-2,2.1561353E-2,-5.981863E-1,9.59784E-1,7.504853E-3,-3.4133922E-2,3.7942192E-1,-7.464216E-1,-4.480294E-2,2.8140593E-2,5.8735497E-2,-1.22719975E-2,4.439887E-2,-8.6183E-1,-0E0,1.0134864E-2,-1.4906133E-2,-2.3081299E-2,-6.1807174E-2],"categories":[],"categories_nodes":[],"categories_segments":[],"categories_sizes":[],"default_left":[0,0,0,0,0,0,0,0,0,0,0,0,0,0,0,0,0,0,0,0,0,0,0,0,0],"id":20,"left_children":[1,3,5,7,-1,9,11,-1,13,15,-1,-1,17,19,21,-1,-1,-1,-1,23,-1,-1,-1,-1,-1],"loss_changes":[1.0610649E1,8.563709E0,6.175197E0,7.068309E0,0E0,3.0263052E0,5.8560085E0,0E0,3.7320862E0,4.1745567E-1,0E0,0E0,4.1184196E0,3.0935555E0,7.6643956E-1,0E0,0E0,0E0,0E0,4.014124E0,0E0,0E0,0E0,0E0,0E0],"parents":[2147483647,0,0,1,1,2,2,3,3,5,5,6,6,8,8,9,9,12,12,13,13,14,14,19,19],"right_children":[2,4,6,8,-1,10,12,-1,14,16,-1,-1,18,20,22,-1,-1,-1,-1,24,-1,-1,-1,-1,-1],"split_conditions":[2.2679418E-1,9.145505E-1,-1.6347319E-2,4.1071025E-1,3.6058005E-2,2.3090586E-1,2.4860494E-2,2.1561353E-2,4.2904552E-2,-5.932976E-1,7.504853E-3,-3.4133922E-2,9.763524E-1,3.2653455E-2,1.872077E-1,2.8140593E-2,5.8735497E-2,-1.22719975E-2,4.439887E-2,1.0173247E-1,-0E0,1.0134864E-2,-1.4906133E-2,-2.3081299E-2,-6.1807174E-2],"split_indices":[3,12,10,18,0,42,10,0,4,13,0,0,39,10,3,0,0,0,0,42,0,0,0,0,0],"split_type":[0,0,0,0,0,0,0,0,0,0,0,0,0,0,0,0,0,0,0,0,0,0,0,0,0],"sum_hessian":[9.9469315E1,5.8813137E1,4.065618E1,5.2792244E1,6.0208926E0,2.150205E1,1.915413E1,6.9239554E0,4.5868286E1,1.3678316E1,7.8237348E0,8.082074E0,1.1072056E1,3.575975E1,1.0108536E1,6.2388873E0,7.4394293E0,5.11186E0,5.9601965E0,3.0738865E1,5.0208864E0,5.014405E0,5.0941315E0,1.606408E1,1.4674787E1],"tree_param":{"num_deleted":"0","num_feature":"48","num_nodes":"25","size_leaf_vector":"1"}},{"base_weights":[-3.5268843E-2,-3.81383E-1,2.8719205E-1,-2.3878282E-2,-8.804803E-1,5.298257E-2,5.62636E-2,-3.9838858E-2,2.4423306E-1,-6.3517384E-2,-1.3971797E-2,3.2818428E-1,-4.5225244E-2,-1.5178985E-2,6.5760505E-1,1.2682173E-1,5.7481904E-2,3.209896E-4,6.042055E-2,-1.5742542E-1,3.2279514E-2,-4.4532776E-2,9.419397E-3],"categories":[],"categories_nodes":[],"categories_segments":[],"categories_sizes":[],"default_left":[0,0,0,0,0,0,0,0,0,0,0,0,0,0,0,0,0,0,0,0,0,0,0],"id":21,"left_children":[1,3,5,7,9,-1,11,-1,13,-1,-1,15,-1,-1,17,19,-1,-1,-1,21,-1,-1,-1],"loss_changes":[1.145144E1,8.730093E0,9.280592E0,6.4698577E0,4.3021984E0,0E0,1.1198012E1,0E0,5.4331474E0,0E0,0E0,5.269252E0,0E0,0E0,4.7138205E0,4.298999E0,0E0,0E0,0E0,5.0187774E0,0E0,0E0,0E0],"parents":[2147483647,0,0,1,1,2,2,3,3,4,4,6,6,8,8,11,11,14,14,15,15,19,19],"right_children":[2,4,6,8,10,-1,12,-1,14,-1,-1,16,-1,-1,18,20,-1,-1,-1,22,-1,-1,-1],"split_conditions":[3.932131E-1,4.5093063E-1,-5.7536315E-2,-6.912211E-2,-4.4719588E-2,5.298257E-2,2.0925596E-1,-3.9838858E-2,1.8149747E-1,-6.3517384E-2,-1.3971797E-2,3.3579484E-1,-4.5225244E-2,-1.5178985E-2,-3.236336E-4,9.996763E-1,5.7481904E-2,3.209896E-4,6.042055E-2,4.4568816E-1,3.2279514E-2,-4.4532776E-2,9.419397E-3],"split_indices":[47,14,10,47,5,0,8,0,3,0,0,16,0,0,47,39,0,0,0,14,0,0,0],"split_type":[0,0,0,0,0,0,0,0,0,0,0,0,0,0,0,0,0,0,0,0,0,0,0],"sum_hessian":[1.00538086E2,4.8552036E1,5.1986053E1,2.9016E1,1.9536034E1,1.1038938E1,4.0947117E1,7.0612693E0,2.1954733E1,1.1073359E1,8.462675E0,3.250883E1,8.438286E0,9.452151E0,1.2502581E1,2.7133686E1,5.375144E0,6.276021E0,6.2265596E0,1.7854502E1,9.279183E0,5.30978E0,1.2544723E1],"tree_param":{"num_deleted":"0","num_feature":"48","num_nodes":"23","size_leaf_vector":"1"}},{"base_weights":[3.0597078E-2,-2.610865E-1,3.554072E-1,1.3487878E-1,-8.7594265E-1,-2.7152881E-2,4.9251035E-1,-3.3465434E-2,4.203175E-1,-6.300395E-2,-1.132413E-2,1.0622761E0,4.891322E-2,5.6806505E-1,-5.345554E-3,2.437677E-2,6.567942E-2,-3.3794902E-2,3.7571794E-1,2.2947033E-1,5.8428925E-2,-1.429496E-2,6.93541E-1,3.923931E-2,-2.6969975E-2,4.7102123E-3,5.4279387E-2],"categories":[],"categories_nodes":[],"categories_segments":[],"categories_sizes":[],"default_left":[0,0,0,0,0,0,0,0,0,0,0,0,0,0,0,0,0,0,0,0,0,0,0,0,0,0,0],"id":22,"left_children":[1,3,5,7,9,-1,11,-1,13,-1,-1,15,17,19,-1,-1,-1,-1,21,23,-1,-1,25,-1,-1,-1,-1],"loss_changes":[9.3215475E0,1.2775256E1,6.005943E0,7.649071E0,4.6748953E0,0E0,1.02182865E1,0E0,2.0133672E0,0E0,0E0,1.7552814E0,5.9659443E0,3.5415583E0,0E0,0E0,0E0,0E0,3.9074588E0,6.327848E0,0E0,0E0,2.6413345E0,0E0,0E0,0E0,0E0],"parents":[2147483647,0,0,1,1,2,2,3,3,4,4,6,6,8,8,11,11,12,12,13,13,18,18,19,19,22,22],"right_children":[2,4,6,8,10,-1,12,-1,14,-1,-1,16,18,20,-1,-1,-1,-1,22,24,-1,-1,26,-1,-1,-1,-1],"split_conditions":[3.932131E-1,4.5169818E-1,2.0500277E-1,-6.912211E-2,-4.4719588E-2,-2.7152881E-2,-4.250879E-3,-3.3465434E-2,3.498147E-1,-6.300395E-2,-1.132413E-2,3.8804457E-1,1.7171334E-1,-3.968453E-1,-5.345554E-3,2.437677E-2,6.567942E-2,-3.3794902E-2,2.791217E-1,1.7677861E-1,5.8428925E-2,-1.429496E-2,-7.270278E-2,3.923931E-2,-2.6969975E-2,4.7102123E-3,5.4279387E-2],"split_indices":[47,14,2,47,5,0,10,0,12,0,0,14,42,13,0,0,0,0,2,11,0,0,5,0,0,0,0],"split_type":[0,0,0,0,0,0,0,0,0,0,0,0,0,0,0,0,0,0,0,0,0,0,0,0,0,0,0],"sum_hessian":[9.631001E1,5.0683716E1,4.5626297E1,3.1205484E1,1.9478231E1,5.5520782E0,4.007422E1,7.730526E0,2.3474958E1,1.15516205E1,7.92661E0,1.6833189E1,2.324103E1,1.8424107E1,5.050852E0,6.136695E0,1.0696494E1,6.795432E0,1.6445599E1,1.2771593E1,5.6525135E0,5.267002E0,1.1178596E1,7.479145E0,5.292448E0,5.0119696E0,6.1666265E0],"tree_param":{"num_deleted":"0","num_feature":"48","num_nodes":"27","size_leaf_vector":"1"}},{"base_weights":[3.8035743E-2,8.261965E-1,-1.01957336E-1,5.2420296E-2,2.0581825E-2,-8.953508E-3,-6.5385565E-2,-1.0777972E-1,3.357185E-2,-5.508741E-1,1.339691E-1,-9.679494E-2,-5.593918E-2,5.813012E-1,-1.2662823E-1,-2.6036544E-2,1.4197858E-2,-0E0,5.021773E-2,-2.1975491E-2,1.54665485E-2],"categories":[],"categories_nodes":[],"categories_segments":[],"categories_sizes":[],"default_left":[0,0,0,0,0,0,0,0,0,0,0,0,0,0,0,0,0,0,0,0,0],"id":23,"left_children":[1,3,5,-1,-1,7,-1,9,-1,11,13,15,-1,17,19,-1,-1,-1,-1,-1,-1],"loss_changes":[1.1194239E1,8.3239555E-1,9.470282E0,0E0,0E0,5.440561E0,0E0,7.7671547E0,0E0,6.360733E0,5.583487E0,2.65643E0,0E0,4.355107E0,4.2819686E0,0E0,0E0,0E0,0E0,0E0,0E0],"parents":[2147483647,0,0,1,1,2,2,5,5,7,7,9,9,10,10,11,11,13,13,14,14],"right_children":[2,4,6,-1,-1,8,-1,10,-1,12,14,16,-1,18,20,-1,-1,-1,-1,-1,-1],"split_conditions":[-3.714191E-1,-7.011033E-1,7.5031696E-3,5.2420296E-2,2.0581825E-2,4.8777452E-1,-6.5385565E-2,3.5015985E-2,3.357185E-2,2.0748507E-3,-2.39161E-2,-3.236336E-4,-5.593918E-2,-2.238806E-1,2.4860494E-2,-2.6036544E-2,1.4197858E-2,-0E0,5.021773E-2,-2.1975491E-2,1.54665485E-2],"split_indices":[16,13,5,0,0,13,0,4,0,1,10,47,0,16,10,0,0,0,0,0,0],"split_type":[0,0,0,0,0,0,0,0,0,0,0,0,0,0,0,0,0,0,0,0,0],"sum_hessian":[9.903511E1,1.4305848E1,8.472926E1,8.161174E0,6.144674E0,7.9674095E1,5.0551677E0,7.043241E1,9.24169E0,2.4557192E1,4.5875217E1,1.4394451E1,1.016274E1,1.6575459E1,2.9299759E1,6.761302E0,7.633149E0,7.3704815E0,9.204978E0,1.7186495E1,1.2113262E1],"tree_param":{"num_deleted":"0","num_feature":"48","num_nodes":"21","size_leaf_vector":"1"}},{"base_weights":[-3.8287917E-3,7.320257E-1,-1.376231E-1,2.109701E-2,5.1500868E-2,-4.300956E-1,2.4701649E-1,-5.1673282E-2,-8.930955E-1,-1.9236626E-2,4.7651473E-1,-2.6470575E-1,3.3958163E-2,-9.456109E-3,-6.0569685E-2,-6.759225E-2,8.578283E-1,4.963035E-2,-3.7736338E-2,-3.255607E-2,2.4287121E-2,5.9291173E-2,2.0575037E-2,2.9196823E-2,-3.432394E-2],"categories":[],"categories_nodes":[],"categories_segments":[],"categories_sizes":[],"default_left":[0,0,0,0,0,0,0,0,0,0,0,0,0,0,0,0,0,0,0,0,0,0,0,0,0],"id":24,"left_children":[1,3,5,-1,-1,7,9,11,13,-1,15,17,-1,-1,-1,19,21,23,-1,-1,-1,-1,-1,-1,-1],"loss_changes":[9.716508E0,8.212395E-1,9.586617E0,0E0,0E0,8.320564E0,5.53058E0,4.459293E0,4.457073E0,0E0,5.8570766E0,3.5451474E0,0E0,0E0,0E0,4.265219E0,1.7518282E0,6.057519E0,0E0,0E0,0E0,0E0,0E0,0E0,0E0],"parents":[2147483647,0,0,1,1,2,2,5,5,6,6,7,7,8,8,10,10,11,11,15,15,16,16,17,17],"right_children":[2,4,6,-1,-1,8,10,12,14,-1,16,18,-1,-1,-1,20,22,24,-1,-1,-1,-1,-1,-1,-1],"split_conditions":[-3.714191E-1,1E0,1E0,2.109701E-2,5.1500868E-2,4.5843425E-1,-1.1968622E-1,4.1714332E-1,1.01153195E-1,-1.9236626E-2,9.876869E-1,3.5044256E-1,3.3958163E-2,-9.456109E-3,-6.0569685E-2,2.9199582E-1,3.3092952E-1,1E0,-3.7736338E-2,-3.255607E-2,2.4287121E-2,5.9291173E-2,2.0575037E-2,2.9196823E-2,-3.432394E-2],"split_indices":[16,28,47,0,0,14,16,14,42,0,39,0,0,0,0,2,2,27,0,0,0,0,0,0,0],"split_type":[0,0,0,0,0,0,0,0,0,0,0,0,0,0,0,0,0,0,0,0,0,0,0,0,0],"sum_hessian":[9.727219E1,1.4162308E1,8.310988E1,8.288721E0,5.873587E0,4.7291862E1,3.5818016E1,2.6753275E1,2.053859E1,9.248143E0,2.6569874E1,2.1314823E1,5.4384513E0,6.989157E0,1.3549432E1,1.117889E1,1.5390983E1,1.3408349E1,7.9064736E0,5.4429398E0,5.735951E0,7.787354E0,7.6036286E0,7.967616E0,5.440733E0],"tree_param":{"num_deleted":"0","num_feature":"48","num_nodes":"25","size_leaf_vector":"1"}},{"base_weights":[9.409015E-3,7.631904E-2,-4.8983395E-2,5.3019595E-1,-1.01993434E-1,5.2203644E-2,8.6537164E-1,-2.4105555E-1,3.7779447E-2,3.3729196E-2,-2.6262606E-2,5.6361634E-2,1.3834533E-2,-1.1224239E-1,-5.620581E-2,-4.2129564E-1,2.615811E-1,1.7851934E-2,-3.926541E-2,-2.506649E-2,2.698659E-2],"categories":[],"categories_nodes":[],"categories_segments":[],"categories_sizes":[],"default_left":[0,0,0,0,0,0,0,0,0,0,0,0,0,0,0,0,0,0,0,0,0],"id":25,"left_children":[1,3,-1,5,7,9,11,13,-1,-1,-1,-1,-1,15,-1,17,19,-1,-1,-1,-1],"loss_changes":[6.4923596E0,7.6340456E0,0E0,4.122639E0,8.185592E0,4.7345037E0,1.9280081E0,6.458766E0,0E0,0E0,0E0,0E0,0E0,6.212195E0,0E0,8.643574E0,5.433427E0,0E0,0E0,0E0,0E0],"parents":[2147483647,0,0,1,1,3,3,4,4,5,5,6,6,7,7,13,13,15,15,16,16],"right_children":[2,4,-1,6,8,10,12,14,-1,-1,-1,-1,-1,16,-1,18,20,-1,-1,-1,-1],"split_conditions":[8.961055E-3,-4.5043774E-2,-4.8983395E-2,-7.9320336E-4,5.0190365E-1,2.7049088E-1,2.662236E-1,2.7512482E-1,3.7779447E-2,3.3729196E-2,-2.6262606E-2,5.6361634E-2,1.3834533E-2,9.7655785E-1,-5.620581E-2,9.30372E-3,1.7171334E-1,1.7851934E-2,-3.926541E-2,-2.506649E-2,2.698659E-2],"split_indices":[5,10,0,47,13,14,12,8,0,0,0,0,0,39,0,47,42,0,0,0,0],"split_type":[0,0,0,0,0,0,0,0,0,0,0,0,0,0,0,0,0,0,0,0,0],"sum_hessian":[9.733802E1,9.212949E1,5.208522E0,2.5587198E1,6.65423E1,1.114602E1,1.4441178E1,5.797657E1,8.565728E0,5.366738E0,5.7792826E0,9.244336E0,5.196843E0,5.167851E1,6.2980604E0,2.8367006E1,2.3311502E1,8.957805E0,1.94092E1,5.9179316E0,1.7393572E1],"tree_param":{"num_deleted":"0","num_feature":"48","num_nodes":"21","size_leaf_vector":"1"}},{"base_weights":[4.5179285E-2,-2.6126134E-1,3.2370418E-1,3.8579494E-2,-4.1399735E-1,5.325944E-2,1.7780466E-1,1.3348422E-2,-7.0186573E-1,4.8741242E-1,-2.3964573E-1,2.0871704E-2,-2.4137849E-2,-5.1146414E-2,4.345165E-3,1.7543897E-1,5.2845437E-2,1.2987085E-2,-4.7348958E-1,3.6434636E-2,-1.4954594E-2,-4.7446918E-2,3.5499556E-3],"categories":[],"categories_nodes":[],"categories_segments":[],"categories_sizes":[],"default_left":[0,0,0,0,0,0,0,0,0,0,0,0,0,0,0,0,0,0,0,0,0,0,0],"id":26,"left_children":[1,3,5,-1,7,-1,9,11,13,15,17,-1,-1,-1,-1,19,-1,-1,21,-1,-1,-1,-1],"loss_changes":[8.052427E0,7.3505454E0,5.0395484E0,0E0,4.969589E0,0E0,5.655312E0,3.571892E0,6.2390757E0,4.126181E0,2.328046E0,0E0,0E0,0E0,0E0,4.839388E0,0E0,0E0,3.5791557E0,0E0,0E0,0E0,0E0],"parents":[2147483647,0,0,1,1,2,2,4,4,6,6,7,7,8,8,9,9,10,10,15,15,18,18],"right_children":[2,4,6,-1,8,-1,10,12,14,16,18,-1,-1,-1,-1,20,-1,-1,22,-1,-1,-1,-1],"split_conditions":[4.1000094E-2,2.1770485E-1,4.2778963E-1,3.8579494E-2,3.867437E-1,5.325944E-2,1.7831776E-1,-2.7356729E-2,1.6194697E-1,5.484638E-1,2.546671E-1,2.0871704E-2,-2.4137849E-2,-5.1146414E-2,4.345165E-3,-4.7806603E-1,5.2845437E-2,1.2987085E-2,4.7612694E-1,3.6434636E-2,-1.4954594E-2,-4.7446918E-2,3.5499556E-3],"split_indices":[4,2,18,0,0,0,8,5,42,18,2,0,0,0,0,9,0,0,18,0,0,0,0],"split_type":[0,0,0,0,0,0,0,0,0,0,0,0,0,0,0,0,0,0,0,0,0,0,0],"sum_hessian":[9.228046E1,4.3796886E1,4.848357E1,5.0359077E0,3.876098E1,6.822796E0,4.1660774E1,1.5845016E1,2.2915962E1,2.3961418E1,1.7699356E1,8.930847E0,6.9141684E0,1.6165733E1,6.7502275E0,1.6439445E1,7.5219727E0,5.4730177E0,1.2226338E1,7.4401407E0,8.999305E0,6.2284737E0,5.997865E0],"tree_param":{"num_deleted":"0","num_feature":"48","num_nodes":"23","size_leaf_vector":"1"}},{"base_weights":[-0E0,-3.0381736E-1,3.154078E-1,2.6499202E-2,-8.371603E-1,4.636708E-2,1.2148017E-1,-1.6530193E-1,4.2097248E-2,-5.9430506E-2,-1.43165095E-2,3.4363E-1,-3.349669E-2,2.8607342E-2,-4.6279097E-1,-1.9740526E-2,5.317553E-1,-6.0902793E-2,1.8031198E-1,-7.0617296E-4,7.0389366E-1,4.8265006E-2,-2.9564813E-2,4.4600286E-2,1.5926596E-2],"categories":[],"categories_nodes":[],"categories_segments":[],"categories_sizes":[],"default_left":[0,0,0,0,0,0,0,0,0,0,0,0,0,0,0,0,0,0,0,0,0,0,0,0,0],"id":27,"left_children":[1,3,5,7,9,-1,11,13,-1,-1,-1,15,-1,-1,17,-1,19,-1,21,-1,23,-1,-1,-1,-1],"loss_changes":[9.431475E0,8.938705E0,5.510893E0,5.184314E0,3.2538328E0,0E0,6.866149E0,6.067742E0,0E0,0E0,0E0,4.443489E0,0E0,0E0,9.810802E0,0E0,2.4039216E0,0E0,7.4825273E0,0E0,9.69965E-1,0E0,0E0,0E0,0E0],"parents":[2147483647,0,0,1,1,2,2,3,3,4,4,6,6,7,7,11,11,14,14,16,16,18,18,20,20],"right_children":[2,4,6,8,10,-1,12,14,-1,-1,-1,16,-1,-1,18,-1,20,-1,22,-1,24,-1,-1,-1,-1],"split_conditions":[3.932131E-1,4.5843425E-1,-4.3261867E-2,-5.097017E-3,-4.4719588E-2,4.636708E-2,2.0925596E-1,4.1101277E-1,4.2097248E-2,-5.9430506E-2,-1.43165095E-2,1.16494864E-1,-3.349669E-2,2.8607342E-2,-3.236336E-4,-1.9740526E-2,4.28359E-1,-6.0902793E-2,2.8260493E-1,-7.0617296E-4,5.841951E-1,4.8265006E-2,-2.9564813E-2,4.4600286E-2,1.5926596E-2],"split_indices":[47,14,10,9,5,0,8,18,0,0,0,8,0,0,47,0,14,0,12,0,18,0,0,0,0],"split_type":[0,0,0,0,0,0,0,0,0,0,0,0,0,0,0,0,0,0,0,0,0,0,0,0,0],"sum_hessian":[9.6423996E1,4.9152435E1,4.727156E1,3.0824587E1,1.8327848E1,1.0341539E1,3.6930023E1,2.550112E1,5.3234687E0,1.0371227E1,7.9566207E0,2.9376265E1,7.5537567E0,6.9681926E0,1.8532927E1,5.633421E0,2.3742844E1,8.18356E0,1.0349366E1,5.7729383E0,1.7969906E1,5.0700135E0,5.2793527E0,1.1017542E1,6.952364E0],"tree_param":{"num_deleted":"0","num_feature":"48","num_nodes":"25","size_leaf_vector":"1"}},{"base_weights":[4.1518867E-2,-2.7701786E-1,3.8448682E-1,6.953426E-2,-7.9667205E-1,7.396695E-2,6.0038346E-1,-1.8672758E-1,5.616746E-2,-5.915585E-2,-2.9471358E-3,3.7566807E-2,-2.6723891E-2,8.913266E-1,2.4550429E-1,3.7738707E-2,-4.716594E-1,5.541702E-2,2.131635E-2,-6.5767006E-3,3.416076E-2,-4.9445387E-2,7.572826E-3],"categories":[],"categories_nodes":[],"categories_segments":[],"categories_sizes":[],"default_left":[0,0,0,0,0,0,0,0,0,0,0,0,0,0,0,0,0,0,0,0,0,0,0],"id":28,"left_children":[1,3,5,7,9,11,13,15,-1,-1,-1,-1,-1,17,19,-1,21,-1,-1,-1,-1,-1,-1],"loss_changes":[1.0161116E1,8.789587E0,2.8942661E0,8.312645E0,5.347665E0,8.550962E0,2.3643484E0,6.9371147E0,0E0,0E0,0E0,0E0,0E0,7.683916E-1,2.3403037E0,0E0,6.554183E0,0E0,0E0,0E0,0E0,0E0,0E0],"parents":[2147483647,0,0,1,1,2,2,3,3,4,4,5,5,6,6,7,7,13,13,14,14,16,16],"right_children":[2,4,6,8,10,12,14,16,-1,-1,-1,-1,-1,18,20,-1,22,-1,-1,-1,-1,-1,-1],"split_conditions":[3.932131E-1,4.5169818E-1,1.4939939E-3,2.6339265E-2,-4.1421972E-2,3.8011914E-1,8.19112E-1,4.1101277E-1,5.616746E-2,-5.915585E-2,-2.9471358E-3,3.7566807E-2,-2.6723891E-2,1.5913184E-1,9.8785186E-1,3.7738707E-2,-3.236336E-4,5.541702E-2,2.131635E-2,-6.5767006E-3,3.416076E-2,-4.9445387E-2,7.572826E-3],"split_indices":[47,14,1,9,5,11,11,18,0,0,0,0,0,8,39,0,47,0,0,0,0,0,0],"split_type":[0,0,0,0,0,0,0,0,0,0,0,0,0,0,0,0,0,0,0,0,0,0,0],"sum_hessian":[9.093641E1,4.7096E1,4.384041E1,2.8658016E1,1.8437984E1,1.8720654E1,2.5119757E1,2.36378E1,5.0202165E0,1.1614618E1,6.8233666E0,8.82522E0,9.895432E0,1.2817814E1,1.2301943E1,5.0270305E0,1.8610771E1,7.6493187E0,5.1684957E0,6.862076E0,5.439867E0,9.93619E0,8.674581E0],"tree_param":{"num_deleted":"0","num_feature":"48","num_nodes":"23","size_leaf_vector":"1"}},{"base_weights":[-2.650021E-2,-2.3488763E-1,2.9215276E-1,1.1111394E-1,-7.391433E-1,9.579576E-2,4.9730938E-2,-7.360486E-2,4.944442E-2,1.4886722E-2,-1.0606725E0,2.9634795E-1,-2.520189E-2,-4.5435792E-1,3.106884E-1,-5.9881814E-2,-3.1162385E-2,-3.1759992E-1,8.021222E-1,1.3886697E-2,-5.4330576E-2,4.076484E-2,-2.5870064E-2,7.697493E-3,-3.787616E-2,8.685581E-3,5.8058936E-2],"categories":[],"categories_nodes":[],"categories_segments":[],"categories_sizes":[],"default_left":[0,0,0,0,0,0,0,0,0,0,0,0,0,0,0,0,0,0,0,0,0,0,0,0,0,0,0],"id":29,"left_children":[1,3,5,7,9,11,-1,13,-1,-1,15,17,-1,19,21,-1,-1,23,25,-1,-1,-1,-1,-1,-1,-1,-1],"loss_changes":[6.2924E0,1.0170917E1,4.9473658E0,5.811966E0,8.270906E0,3.78656E0,0E0,4.4884734E0,0E0,0E0,1.6976738E-1,7.6137505E0,0E0,7.516225E0,6.80352E0,0E0,0E0,2.513092E0,2.6616068E0,0E0,0E0,0E0,0E0,0E0,0E0,0E0,0E0],"parents":[2147483647,0,0,1,1,2,2,3,3,4,4,5,5,7,7,10,10,11,11,13,13,14,14,17,17,18,18],"right_children":[2,4,6,8,10,12,-1,14,-1,-1,16,18,-1,20,22,-1,-1,24,26,-1,-1,-1,-1,-1,-1,-1,-1],"split_conditions":[1E0,4.5169818E-1,2.6523635E-1,2.9899215E-4,2.2774313E-1,8.0744314E-1,4.9730938E-2,-3.236336E-4,4.944442E-2,1.4886722E-2,4.3608967E-2,-7.874852E-2,-2.520189E-2,1.31493E-1,2.8260493E-1,-5.9881814E-2,-3.1162385E-2,4.4096804E-1,1.7351538E-1,1.3886697E-2,-5.4330576E-2,4.076484E-2,-2.5870064E-2,7.697493E-3,-3.787616E-2,8.685581E-3,5.8058936E-2],"split_indices":[47,14,9,9,2,12,0,47,0,0,47,16,0,12,12,0,0,12,42,0,0,0,0,0,0,0,0],"split_type":[0,0,0,0,0,0,0,0,0,0,0,0,0,0,0,0,0,0,0,0,0,0,0,0,0,0,0],"sum_hessian":[9.28132E1,5.6464302E1,3.63489E1,3.383163E1,2.2632673E1,2.940749E1,6.941411E0,2.8612614E1,5.219015E0,5.30096E0,1.7331715E1,2.2542986E1,6.864504E0,1.4411637E1,1.4200976E1,1.1701333E1,5.6303816E0,1.0261327E1,1.2281658E1,6.865072E0,7.5465655E0,8.908601E0,5.2923756E0,5.1566744E0,5.104653E0,5.1065784E0,7.17508E0],"tree_param":{"num_deleted":"0","num_feature":"48","num_nodes":"27","size_leaf_vector":"1"}},{"base_weights":[-4.589836E-2,5.008761E-1,-1.4881514E-1,3.859218E-2,-1.6495686E-4,-2.663617E-1,3.6020267E-1,2.7073675E-1,-3.8142458E-1,4.581362E-2,-1.4829742E-2,4.8808422E-2,-2.6922569E-2,-1.0740778E-1,-6.458594E-1,3.0676585E-1,-6.7281777E-1,-1.0488578E0,-0E0,-9.113847E-3,3.698431E-2,-6.5840892E-3,-5.1906265E-2,-2.9668896E-2,-6.1820652E-2,2.701518E-2,-2.803987E-2],"categories":[],"categories_nodes":[],"categories_segments":[],"categories_sizes":[],"default_left":[0,0,0,0,0,0,0,0,0,0,0,0,0,0,0,0,0,0,0,0,0,0,0,0,0,0,0],"id":30,"left_children":[1,3,5,-1,-1,7,9,11,13,-1,-1,-1,-1,15,17,19,21,23,25,-1,-1,-1,-1,-1,-1,-1,-1],"loss_changes":[5.2946033E0,2.1107228E0,4.8445725E0,0E0,0E0,4.1521707E0,5.8793364E0,7.3959947E0,3.7955046E0,0E0,0E0,0E0,0E0,6.8211336E0,7.02357E0,3.7470517E0,2.1762104E0,5.1267624E-1,3.8061059E0,0E0,0E0,0E0,0E0,0E0,0E0,0E0,0E0],"parents":[2147483647,0,0,1,1,2,2,5,5,6,6,7,7,8,8,13,13,14,14,15,15,16,16,17,17,18,18],"right_children":[2,4,6,-1,-1,8,10,12,14,-1,-1,-1,-1,16,18,20,22,24,26,-1,-1,-1,-1,-1,-1,-1,-1],"split_conditions":[-3.714191E-1,3.0218777E-1,2.8303656E-1,3.859218E-2,-1.6495686E-4,2.2109972E-1,2.7939862E-1,1.7994474E-1,-6.259525E-3,4.581362E-2,-1.4829742E-2,4.8808422E-2,-2.6922569E-2,1.9488242E-1,1.7171334E-1,1.7729996E-1,1.7256367E-1,1.3801685E-1,2.1992038E-1,-9.113847E-3,3.698431E-2,-6.5840892E-3,-5.1906265E-2,-2.9668896E-2,-6.1820652E-2,2.701518E-2,-2.803987E-2],"split_indices":[16,3,3,0,0,2,42,3,10,0,0,0,0,8,42,3,12,3,42,0,0,0,0,0,0,0,0],"split_type":[0,0,0,0,0,0,0,0,0,0,0,0,0,0,0,0,0,0,0,0,0,0,0,0,0,0,0],"sum_hessian":[9.2390076E1,1.3868942E1,7.852114E1,8.804455E0,5.064487E0,6.433707E1,1.4184073E1,1.0959148E1,5.3377914E1,7.549539E0,6.6345344E0,5.8107204E0,5.148428E0,2.7090313E1,2.6287603E1,1.5798323E1,1.129199E1,1.5731316E1,1.0556287E1,7.581712E0,8.216611E0,5.2094126E0,6.082578E0,5.958341E0,9.772975E0,5.3267126E0,5.229574E0],"tree_param":{"num_deleted":"0","num_feature":"48","num_nodes":"27","size_leaf_vector":"1"}},{"base_weights":[9.557294E-2,7.0136327E-1,-1.5201618E-2,1.7269768E-2,4.5380197E-2,-2.0180768E-1,2.8168574E-1,-5.291103E-1,1.7520697E-1,-2.3049792E-2,6.195315E-1,5.3067617E-3,-7.795618E-1,4.237E-1,-2.7564734E-2,-7.3935175E-3,8.6790335E-1,-9.6439946E-1,-1.1881038E-2,7.761442E-1,-1.9403353E-2,5.917232E-2,1.4542918E-2,-6.296269E-2,-2.191736E-2,1.3223724E-2,6.1443795E-2],"categories":[],"categories_nodes":[],"categories_segments":[],"categories_sizes":[],"default_left":[0,0,0,0,0,0,0,0,0,0,0,0,0,0,0,0,0,0,0,0,0,0,0,0,0,0,0],"id":31,"left_children":[1,3,5,-1,-1,7,9,11,13,-1,15,-1,17,19,-1,-1,21,23,-1,25,-1,-1,-1,-1,-1,-1,-1],"loss_changes":[6.2491174E0,6.164932E-1,4.4015684E0,0E0,0E0,6.178718E0,7.962781E0,4.3881235E0,4.444436E0,0E0,4.2994337E0,0E0,1.58776E0,5.518693E0,0E0,0E0,2.5111885E0,1.4428616E0,0E0,2.5464416E0,0E0,0E0,0E0,0E0,0E0,0E0,0E0],"parents":[2147483647,0,0,1,1,2,2,5,5,6,6,7,7,8,8,10,10,12,12,13,13,16,16,17,17,19,19],"right_children":[2,4,6,-1,-1,8,10,12,14,-1,16,-1,18,20,-1,-1,22,24,-1,26,-1,-1,-1,-1,-1,-1,-1],"split_conditions":[-3.6678043E-1,3.932131E-1,9.772275E-1,1.7269768E-2,4.5380197E-2,-4.511675E-2,-1.257081E-1,3.8570306E-1,1E0,-2.3049792E-2,1.7120028E-1,5.3067617E-3,7.774974E-1,5.666391E-1,-2.7564734E-2,-7.3935175E-3,7.4505043E-1,3.963281E-1,-1.1881038E-2,-4.3333346E-1,-1.9403353E-2,5.917232E-2,1.4542918E-2,-6.296269E-2,-2.191736E-2,1.3223724E-2,6.1443795E-2],"split_indices":[16,47,39,0,0,5,16,14,27,0,42,0,12,14,0,0,19,2,0,9,0,0,0,0,0,0,0],"split_type":[0,0,0,0,0,0,0,0,0,0,0,0,0,0,0,0,0,0,0,0,0,0,0,0,0,0,0],"sum_hessian":[9.094148E1,1.3374105E1,7.756738E1,6.0652227E0,7.308882E0,4.8033443E1,2.9533936E1,2.56379E1,2.2395544E1,9.0277815E0,2.0506155E1,7.299749E0,1.833815E1,1.7100813E1,5.2947316E0,5.0145555E0,1.5491599E1,1.29554405E1,5.3827105E0,1.204034E1,5.0604725E0,9.223681E0,6.2679176E0,7.2871113E0,5.668329E0,6.499627E0,5.5407133E0],"tree_param":{"num_deleted":"0","num_feature":"48","num_nodes":"27","size_leaf_vector":"1"}},{"base_weights":[-5.416834E-3,5.321164E-2,-8.249266E-2,-3.328402E-1,2.5694045E-1,-4.881592E-1,2.1590384E-2,9.0568215E-2,4.5591872E-2,-1.8850686E-1,-5.099395E-2,3.3709116E-2,-1.2497771E-1,-6.131095E-1,2.2961125E-1,6.2444568E-2,-2.8362015E-2,-5.7711758E-2,6.948199E-3,6.4613156E-2,-2.2359682E-2,-1.23521285E-2,3.2454338E-2],"categories":[],"categories_nodes":[],"categories_segments":[],"categories_sizes":[],"default_left":[0,0,0,0,0,0,0,0,0,0,0,0,0,0,0,0,0,0,0,0,0,0,0],"id":32,"left_children":[1,-1,3,5,7,9,-1,11,-1,13,-1,-1,15,17,19,21,-1,-1,-1,-1,-1,-1,-1],"loss_changes":[7.4176006E0,0E0,7.320906E0,6.102077E0,3.7940156E0,6.3419504E0,0E0,3.9554808E0,0E0,5.160901E0,0E0,0E0,1.9818696E0,6.087092E0,1.1268781E1,3.2520497E0,0E0,0E0,0E0,0E0,0E0,0E0,0E0],"parents":[2147483647,0,0,2,2,3,3,4,4,5,5,7,7,9,9,12,12,13,13,14,14,15,15],"right_children":[2,-1,4,6,8,10,-1,12,-1,14,-1,-1,16,18,20,22,-1,-1,-1,-1,-1,-1,-1],"split_conditions":[9.6531086E-2,5.321164E-2,1E0,1E0,2.6523635E-1,4.5440328E-1,2.1590384E-2,-8.145983E-1,4.5591872E-2,-3.236336E-4,-5.099395E-2,3.3709116E-2,8.7319666E-1,-8.2925385E-1,9.30372E-3,5.371724E-1,-2.8362015E-2,-5.7711758E-2,6.948199E-3,6.4613156E-2,-2.2359682E-2,-1.23521285E-2,3.2454338E-2],"split_indices":[12,0,47,29,9,19,0,9,0,47,0,0,15,9,47,18,0,0,0,0,0,0,0],"split_type":[0,0,0,0,0,0,0,0,0,0,0,0,0,0,0,0,0,0,0,0,0,0,0],"sum_hessian":[8.9097176E1,5.04051E0,8.405667E1,4.8557392E1,3.549928E1,4.0768635E1,7.7887554E0,2.9337317E1,6.1619616E0,2.7060947E1,1.3707688E1,7.4639654E0,2.187335E1,1.3313639E1,1.3747309E1,1.5807245E1,6.066106E0,7.509032E0,5.804607E0,5.0526047E0,8.694704E0,1.0615428E1,5.191817E0],"tree_param":{"num_deleted":"0","num_feature":"48","num_nodes":"23","size_leaf_vector":"1"}},{"base_weights":[-7.4100405E-2,3.7398268E-2,-1.7706475E-1,-6.269603E-2,-7.78168E-1,-2.6745212E-1,2.7146354E-1,-2.2311965E-2,-4.712445E-2,-4.8077905E-1,2.1471068E-1,-3.240517E-2,5.4864025E-1,5.7135988E-2,-7.8082037E-1,-4.244583E-3,2.8857032E-2,-3.8137906E-3,7.852268E-1,-1.8445414E-2,2.5995135E-2,-1.7005092E-2,-4.601526E-2,5.6569505E-2,2.1498653E-3],"categories":[],"categories_nodes":[],"categories_segments":[],"categories_sizes":[],"default_left":[0,0,0,0,0,0,0,0,0,0,0,0,0,0,0,0,0,0,0,0,0,0,0,0,0],"id":33,"left_children":[1,-1,3,5,7,9,11,-1,-1,13,15,-1,17,19,21,-1,-1,-1,23,-1,-1,-1,-1,-1,-1],"loss_changes":[7.806314E0,0E0,5.510315E0,4.8748074E0,1.4383173E-1,4.6774406E0,7.2222185E0,0E0,0E0,5.1370034E0,1.6302111E0,0E0,3.2881846E0,2.5628562E0,7.999058E-1,0E0,0E0,0E0,3.8666582E0,0E0,0E0,0E0,0E0,0E0,0E0],"parents":[2147483647,0,0,2,2,3,3,4,4,5,5,6,6,9,9,10,10,12,12,13,13,14,14,18,18],"right_children":[2,-1,4,6,8,10,12,-1,-1,14,16,-1,18,20,22,-1,-1,-1,24,-1,-1,-1,-1,-1,-1],"split_conditions":[-4.1503328E-1,3.7398268E-2,2.7512482E-1,9.7989196E-1,3.0568647E-1,-3.4508746E-2,1.7171334E-1,-2.2311965E-2,-4.712445E-2,4.1742447E-1,3.7956855E-1,-3.240517E-2,-1.3254611E-1,1.1867102E-1,1.3450234E-1,-4.244583E-3,2.8857032E-2,-3.8137906E-3,7.6939315E-1,-1.8445414E-2,2.5995135E-2,-1.7005092E-2,-4.601526E-2,5.6569505E-2,2.1498653E-3],"split_indices":[16,0,8,40,0,5,42,0,0,0,12,0,16,42,8,0,0,0,19,0,0,0,0,0,0],"split_type":[0,0,0,0,0,0,0,0,0,0,0,0,0,0,0,0,0,0,0,0,0,0,0,0,0],"sum_hessian":[9.033566E1,9.249808E0,8.108585E1,6.9191765E1,1.1894086E1,4.3212326E1,2.597944E1,5.3702955E0,6.5237904E0,3.010362E1,1.3108705E1,5.6235676E0,2.0355873E1,1.0949538E1,1.9154083E1,7.4445395E0,5.6641655E0,5.6601524E0,1.4695721E1,5.6940575E0,5.2554812E0,5.6037073E0,1.3550375E1,9.572312E0,5.1234074E0],"tree_param":{"num_deleted":"0","num_feature":"48","num_nodes":"25","size_leaf_vector":"1"}},{"base_weights":[-3.4960913E-3,1.0210775E-1,-4.7062868E-1,-4.989353E-2,5.688071E-1,1.4303326E-2,-4.6136662E-2,3.0726869E-2,-1.6952081E-1,4.8244163E-2,-1.8691629E-3,-3.8192818E-1,1.5978315E-1,-2.2853022E-2,-6.2535596E-1,2.990208E-2,-1.3219765E-2,2.2279656E-2,-2.057298E-2,-4.9122956E-2,-7.04555E-3],"categories":[],"categories_nodes":[],"categories_segments":[],"categories_sizes":[],"default_left":[0,0,0,0,0,0,0,0,0,0,0,0,0,0,0,0,0,0,0,0,0],"id":34,"left_children":[1,3,5,7,9,-1,-1,-1,11,-1,-1,13,15,17,19,-1,-1,-1,-1,-1,-1],"loss_changes":[4.340104E0,5.1169715E0,5.889426E0,4.3768506E0,4.3750796E0,0E0,0E0,0E0,3.3664794E0,0E0,0E0,2.4569435E0,3.7097335E0,2.5330396E0,2.7053022E0,0E0,0E0,0E0,0E0,0E0,0E0],"parents":[2147483647,0,0,1,1,2,2,3,3,4,4,8,8,11,11,12,12,13,13,14,14],"right_children":[2,4,6,8,10,-1,-1,-1,12,-1,-1,14,16,18,20,-1,-1,-1,-1,-1,-1],"split_conditions":[2.7341935E-1,2.7190012E-1,-3.945765E-1,4.4519752E-1,2.7939862E-1,1.4303326E-2,-4.6136662E-2,3.0726869E-2,6.062543E-3,4.8244163E-2,-1.8691629E-3,1E0,3.118967E-1,5.00009E-1,-5.5356544E-2,2.990208E-2,-1.3219765E-2,2.2279656E-2,-2.057298E-2,-4.9122956E-2,-7.04555E-3],"split_indices":[8,3,16,18,42,0,0,0,1,0,0,7,2,18,5,0,0,0,0,0,0],"split_type":[0,0,0,0,0,0,0,0,0,0,0,0,0,0,0,0,0,0,0,0,0],"sum_hessian":[8.5258095E1,7.0000534E1,1.5257554E1,5.331498E1,1.6685556E1,5.7611265E0,9.496428E0,7.3757486E0,4.593923E1,9.833643E0,6.851914E0,2.8013714E1,1.7925516E1,1.1926244E1,1.6087471E1,8.730789E0,9.194728E0,5.224451E0,6.7017927E0,8.550289E0,7.5371814E0],"tree_param":{"num_deleted":"0","num_feature":"48","num_nodes":"21","size_leaf_vector":"1"}},{"base_weights":[1.0909188E-2,7.777519E-2,-4.472858E-2,-7.604204E-2,5.727761E-1,-3.2673043E-1,2.4625033E-1,7.8265625E-1,3.9252187E-3,1.3934711E-2,-9.3717813E-1,-1.8604276E-1,5.896726E-1,2.456302E-2,5.328059E-2,-3.1574914E-1,2.9574418E-2,-2.59478E-2,-6.388575E-2,2.185077E-2,-3.423203E-2,8.1358975E-1,3.0172577E-3,8.07584E-3,-2.976658E-2,4.9455076E-2,2.3593081E-2],"categories":[],"categories_nodes":[],"categories_segments":[],"categories_sizes":[],"default_left":[0,0,0,0,0,0,0,0,0,0,0,0,0,0,0,0,0,0,0,0,0,0,0,0,0,0,0],"id":35,"left_children":[1,3,-1,5,7,9,11,13,-1,15,17,19,21,-1,-1,23,-1,-1,-1,-1,-1,25,-1,-1,-1,-1,-1],"loss_changes":[5.515872E0,6.6447783E0,0E0,5.4513407E0,1.996767E0,7.9952445E0,4.5201416E0,4.9625587E-1,0E0,5.0185366E0,1.1096668E0,4.5684977E0,1.8515439E0,0E0,0E0,2.3550746E0,0E0,0E0,0E0,0E0,0E0,8.1365585E-2,0E0,0E0,0E0,0E0,0E0],"parents":[2147483647,0,0,1,1,3,3,4,4,5,5,6,6,7,7,9,9,10,10,11,11,12,12,15,15,21,21],"right_children":[2,4,-1,6,8,10,12,14,-1,16,18,20,22,-1,-1,24,-1,-1,-1,-1,-1,26,-1,-1,-1,-1,-1],"split_conditions":[7.5031696E-3,-3.4445826E-2,-4.472858E-2,9.772275E-1,4.715209E-1,4.9114755E-1,-1.1414115E-1,1.5024403E-1,3.9252187E-3,-5.6355726E-2,1.6291837E-1,3.721409E-1,-1.0684005E-1,2.456302E-2,5.328059E-2,1E0,2.9574418E-2,-2.59478E-2,-6.388575E-2,2.185077E-2,-3.423203E-2,6.294063E-1,3.0172577E-3,8.07584E-3,-2.976658E-2,4.9455076E-2,2.3593081E-2],"split_indices":[5,5,0,39,2,0,16,42,0,5,42,0,9,0,0,7,0,0,0,0,0,19,0,0,0,0,0],"split_type":[0,0,0,0,0,0,0,0,0,0,0,0,0,0,0,0,0,0,0,0,0,0,0,0,0,0,0],"sum_hessian":[9.030226E1,8.504647E1,5.2557845E0,6.5375854E1,1.9670618E1,3.6939636E1,2.8436218E1,1.3256012E1,6.4146056E0,2.4230804E1,1.2708833E1,1.2663164E1,1.5773054E1,8.052697E0,5.2033153E0,1.5603847E1,8.626959E0,6.968377E0,5.7404556E0,5.5947714E0,7.0683928E0,1.0574054E1,5.1990004E0,5.787986E0,9.815861E0,5.541101E0,5.0329533E0],"tree_param":{"num_deleted":"0","num_feature":"48","num_nodes":"27","size_leaf_vector":"1"}},{"base_weights":[-4.62911E-3,-3.4321165E-1,1.3983348E-1,2.0313993E-2,-5.52951E-1,4.509399E-2,3.752335E-2,-7.35039E-1,1.1234416E-4,1.6717222E-1,-3.7515808E-2,-1.0257304E-2,-5.2973438E-2,-1.2546842E-1,4.8186976E-1,-2.8910652E-2,1.634594E-1,7.6252073E-1,3.334387E-3,3.0936047E-2,-1.9796878E-2,-1.3416135E-3,6.1766323E-2],"categories":[],"categories_nodes":[],"categories_segments":[],"categories_sizes":[],"default_left":[0,0,0,0,0,0,0,0,0,0,0,0,0,0,0,0,0,0,0,0,0,0,0],"id":36,"left_children":[1,3,5,-1,7,-1,9,11,-1,13,-1,-1,-1,15,17,-1,19,21,-1,-1,-1,-1,-1],"loss_changes":[4.3647785E0,4.446931E0,4.711752E0,0E0,2.2425637E0,0E0,5.7753396E0,2.4557648E0,0E0,4.600812E0,0E0,0E0,0E0,3.5337038E0,2.6557884E0,0E0,4.469461E0,5.395706E0,0E0,0E0,0E0,0E0,0E0],"parents":[2147483647,0,0,1,1,2,2,4,4,6,6,7,7,9,9,13,13,14,14,16,16,17,17],"right_children":[2,4,6,-1,8,-1,10,12,-1,14,-1,-1,-1,16,18,-1,20,22,-1,-1,-1,-1,-1],"split_conditions":[3.4332804E-2,2.6161826E-1,-7.658681E-1,2.0313993E-2,1.7375603E-1,4.509399E-2,2.7341935E-1,9.30372E-3,1.1234416E-4,3.6752734E-1,-3.7515808E-2,-1.0257304E-2,-5.2973438E-2,1.4939939E-3,-1.7249621E-1,-2.8910652E-2,8.0467093E-1,-7.9320336E-4,3.334387E-3,3.0936047E-2,-1.9796878E-2,-1.3416135E-3,6.1766323E-2],"split_indices":[4,2,13,0,3,0,8,47,0,2,0,0,0,1,13,0,11,47,0,0,0,0,0],"split_type":[0,0,0,0,0,0,0,0,0,0,0,0,0,0,0,0,0,0,0,0,0,0,0],"sum_hessian":[8.683945E1,2.5766335E1,6.1073112E1,5.32476E0,2.0441576E1,6.188221E0,5.488489E1,1.5284815E1,5.1567607E0,4.791467E1,6.970221E0,6.54135E0,8.743464E0,2.4974318E1,2.294035E1,9.4738455E0,1.5500473E1,1.3044915E1,9.895435E0,8.585739E0,6.9147334E0,5.1607485E0,7.8841667E0],"tree_param":{"num_deleted":"0","num_feature":"48","num_nodes":"23","size_leaf_vector":"1"}},{"base_weights":[3.2443784E-2,-2.0721017E-1,2.6916805E-1,3.0804196E-2,-3.3996165E-1,1.3750789E-1,4.5932334E-2,-4.7471243E-1,2.1908684E-2,4.403853E-2,-6.76228E-2,-9.062617E-1,-1.7161112E-1,-3.1854045E-2,8.2133055E-2,-5.5384316E-2,-2.3108292E-2,8.681103E-2,-3.850382E-2,3.8718456E-1,-3.031749E-1,-2.7876252E-2,3.6909316E-2,5.525837E-4,3.204342E-2,-4.104556E-2,1.4467905E-2],"categories":[],"categories_nodes":[],"categories_segments":[],"categories_sizes":[],"default_left":[0,0,0,0,0,0,0,0,0,0,0,0,0,0,0,0,0,0,0,0,0,0,0,0,0,0,0],"id":37,"left_children":[1,3,5,-1,7,9,-1,11,-1,-1,13,15,17,-1,19,-1,-1,21,-1,23,25,-1,-1,-1,-1,-1,-1],"loss_changes":[5.03524E0,4.981663E0,3.594295E0,0E0,4.255665E0,6.012032E0,0E0,4.1139336E0,0E0,0E0,2.7516806E0,5.330429E-1,3.3872042E0,0E0,3.0987718E0,0E0,0E0,6.921568E0,0E0,1.3304842E0,3.8470192E0,0E0,0E0,0E0,0E0,0E0,0E0],"parents":[2147483647,0,0,1,1,2,2,4,4,5,5,7,7,10,10,11,11,12,12,14,14,17,17,19,19,20,20],"right_children":[2,4,6,-1,8,10,-1,12,-1,-1,14,16,18,-1,20,-1,-1,22,-1,24,26,-1,-1,-1,-1,-1,-1],"split_conditions":[3.932131E-1,1.0471565E-1,2.6523635E-1,3.0804196E-2,1E0,4.586986E-1,4.5932334E-2,4.2720652E-1,2.1908684E-2,4.403853E-2,-5.752079E-4,1.746146E-2,3.2439187E-2,-3.1854045E-2,7.544239E-1,-5.5384316E-2,-2.3108292E-2,-3.236336E-4,-3.850382E-2,2.2104993E-1,4.3057653E-1,-2.7876252E-2,3.6909316E-2,5.525837E-4,3.204342E-2,-4.104556E-2,1.4467905E-2],"split_indices":[47,12,9,0,29,18,0,2,0,0,1,9,47,0,12,0,0,47,0,42,13,0,0,0,0,0,0],"split_type":[0,0,0,0,0,0,0,0,0,0,0,0,0,0,0,0,0,0,0,0,0,0,0,0,0,0,0],"sum_hessian":[8.666267E1,4.2916885E1,4.374578E1,5.349063E0,3.7567825E1,3.750798E1,6.237803E0,3.246437E1,5.103452E0,7.505744E0,3.0002235E1,1.2436978E1,2.0027393E1,5.7085733E0,2.4293661E1,7.3733068E0,5.0636716E0,1.446789E1,5.559503E0,1.3701072E1,1.0592589E1,7.2684984E0,7.1993914E0,6.097767E0,7.603305E0,5.537468E0,5.0551214E0],"tree_param":{"num_deleted":"0","num_feature":"48","num_nodes":"27","size_leaf_vector":"1"}},{"base_weights":[5.7722237E-2,-1.817301E-1,3.0754322E-1,-5.1880854E-1,1.5046029E-1,4.763923E-2,1.3551393E-1,-5.0982513E-2,-2.4680227E-1,3.8170513E-2,-7.046966E-2,-2.7700523E-2,3.387782E-1,-4.191632E-2,1.0624433E-2,3.1375553E-2,-4.3475136E-1,-2.9432809E-3,5.556488E-1,-4.2880826E-2,-0E0,2.4542251E-1,5.0665356E-2,3.9345894E-2,-1.5832635E-2],"categories":[],"categories_nodes":[],"categories_segments":[],"categories_sizes":[],"default_left":[0,0,0,0,0,0,0,0,0,0,0,0,0,0,0,0,0,0,0,0,0,0,0,0,0],"id":38,"left_children":[1,3,5,7,9,-1,11,-1,13,-1,15,-1,17,-1,-1,-1,19,-1,21,-1,-1,23,-1,-1,-1],"loss_changes":[5.1989403E0,5.065874E0,4.485062E0,2.6624627E0,3.223497E0,0E0,5.054974E0,0E0,4.5641036E0,0E0,4.734808E0,0E0,2.468769E0,0E0,0E0,0E0,2.2937515E0,0E0,2.2044463E0,0E0,0E0,4.0325685E0,0E0,0E0,0E0],"parents":[2147483647,0,0,1,1,2,2,3,3,4,4,6,6,8,8,10,10,12,12,16,16,18,18,21,21],"right_children":[2,4,6,8,10,-1,12,-1,14,-1,16,-1,18,-1,-1,-1,20,-1,22,-1,-1,24,-1,-1,-1],"split_conditions":[3.932131E-1,-4.4719588E-2,-5.7536315E-2,3.6841232E-1,1.2553556E-1,4.763923E-2,-2.5362623E-4,-5.0982513E-2,-3.236336E-4,3.8170513E-2,1E0,-2.7700523E-2,2.8152022E-1,-4.191632E-2,1.0624433E-2,3.1375553E-2,2.1504939E-1,-2.9432809E-3,2.0370185E-1,-4.2880826E-2,-0E0,5.8270495E-2,5.0665356E-2,3.9345894E-2,-1.5832635E-2],"split_indices":[47,5,10,2,12,0,1,0,47,0,7,0,2,0,0,0,3,0,16,0,0,16,0,0,0],"split_type":[0,0,0,0,0,0,0,0,0,0,0,0,0,0,0,0,0,0,0,0,0,0,0,0,0],"sum_hessian":[8.476481E1,4.321535E1,4.1549458E1,2.1320442E1,2.189491E1,7.6681685E0,3.388129E1,6.4070163E0,1.49134245E1,5.270257E0,1.6624653E1,7.208996E0,2.6672293E1,6.252828E0,8.660597E0,5.3591537E0,1.12655E1,9.507411E0,1.7164883E1,5.2705646E0,5.994935E0,1.1276084E1,5.888798E0,5.6300564E0,5.6460276E0],"tree_param":{"num_deleted":"0","num_feature":"48","num_nodes":"25","size_leaf_vector":"1"}},{"base_weights":[7.451169E-2,-2.902699E-2,1.3981621E-1,2.1446455E-1,-1.9770494E-2,4.6212807E-2,1.1067223E-1,2.2092527E-1,-2.5105346E-2,4.9037233E-1,6.647626E-3,-5.0032283E-3,3.8955137E-2,-3.5960745E-2,1.289569E-2],"categories":[],"categories_nodes":[],"categories_segments":[],"categories_sizes":[],"default_left":[0,0,0,0,0,0,0,0,0,0,0,0,0,0,0],"id":39,"left_children":[1,-1,3,5,-1,-1,7,9,-1,11,13,-1,-1,-1,-1],"loss_changes":[3.5251865E0,0E0,3.066927E0,4.709055E0,0E0,0E0,4.10007E0,2.9047098E0,0E0,3.9767938E0,5.566271E0,0E0,0E0,0E0,0E0],"parents":[2147483647,0,0,2,2,3,3,6,6,7,7,9,9,10,10],"right_children":[2,-1,4,6,-1,-1,8,10,-1,12,14,-1,-1,-1,-1],"split_conditions":[2.3978218E-2,-2.902699E-2,1E0,1.6908588E-1,-1.9770494E-2,4.6212807E-2,2.7512482E-1,-3.6786047E-1,-2.5105346E-2,3.714101E-1,-1.8284984E-1,-5.0032283E-3,3.8955137E-2,-3.5960745E-2,1.289569E-2],"split_indices":[4,0,27,12,0,0,8,9,0,0,9,0,0,0,0],"split_type":[0,0,0,0,0,0,0,0,0,0,0,0,0,0,0],"sum_hessian":[8.053968E1,6.447325E0,7.4092354E1,6.57134E1,8.378953E0,7.2519655E0,5.8461433E1,5.022709E1,8.234346E0,2.1471817E1,2.8755272E1,7.152487E0,1.4319329E1,6.813103E0,2.194217E1],"tree_param":{"num_deleted":"0","num_feature":"48","num_nodes":"15","size_leaf_vector":"1"}},{"base_weights":[7.1703903E-3,3.7900068E-2,-6.333048E-2,-3.3016887E-1,2.507506E-1,-5.304107E-2,-6.8637335E-1,-1.03494795E-2,3.9720297E-1,-5.841512E-1,4.3674353E-1,-5.0623897E-3,-4.612869E-2,5.055607E-2,1.2518789E-1,-4.3172244E-2,-7.408587E-3,4.9265888E-2,-1.4829884E-2,2.3420373E-2,-1.1590935E-2],"categories":[],"categories_nodes":[],"categories_segments":[],"categories_sizes":[],"default_left":[0,0,0,0,0,0,0,0,0,0,0,0,0,0,0,0,0,0,0,0,0],"id":40,"left_children":[1,-1,3,5,7,9,11,-1,13,15,17,-1,-1,-1,19,-1,-1,-1,-1,-1,-1],"loss_changes":[4.598914E0,0E0,6.6441407E0,4.122582E0,2.535625E0,6.8664856E0,2.3640356E0,0E0,4.4389606E0,1.3163567E0,5.8592386E0,0E0,0E0,0E0,2.6650784E0,0E0,0E0,0E0,0E0,0E0,0E0],"parents":[2147483647,0,0,2,2,3,3,4,4,5,5,6,6,8,8,9,9,10,10,14,14],"right_children":[2,-1,4,6,8,10,12,-1,14,16,18,-1,-1,-1,20,-1,-1,-1,-1,-1,-1],"split_conditions":[1.0508979E-1,3.7900068E-2,1E0,4.5484897E-1,1.7200671E-1,-3.236336E-4,1.01153195E-1,-1.03494795E-2,2.1442969E-1,4.6052396E-1,1.9883E-2,-5.0623897E-3,-4.612869E-2,5.055607E-2,8.1333695E-3,-4.3172244E-2,-7.408587E-3,4.9265888E-2,-1.4829884E-2,2.3420373E-2,-1.1590935E-2],"split_indices":[12,0,47,14,42,47,42,0,42,18,47,0,0,0,1,0,0,0,0,0,0],"split_type":[0,0,0,0,0,0,0,0,0,0,0,0,0,0,0,0,0,0,0,0,0],"sum_hessian":[8.366056E1,6.465891E0,7.719467E1,4.1880672E1,3.5314E1,2.435898E1,1.7521692E1,8.294181E0,2.701982E1,1.1691986E1,1.2666994E1,5.5715747E0,1.1950116E1,7.348963E0,1.9670858E1,6.3891683E0,5.302818E0,7.1278124E0,5.5391817E0,1.0012801E1,9.658056E0],"tree_param":{"num_deleted":"0","num_feature":"48","num_nodes":"21","size_leaf_vector":"1"}},{"base_weights":[6.834897E-3,7.5432144E-2,-4.4664185E-2,4.0359583E-1,-1.6823466E-1,1.0138361E-2,6.081187E-1,1.30180195E-2,-5.97578E-1,-2.6389295E-2,2.673989E-2,8.9536387E-1,5.313722E-3,3.827653E-2,-1.7054944E-1,-9.399548E-3,-5.0870992E-2,5.333648E-2,2.5659546E-2,-3.5331026E-2,4.2231295E-2,-1.0117552E-2,2.8111288E-2],"categories":[],"categories_nodes":[],"categories_segments":[],"categories_sizes":[],"default_left":[0,0,0,0,0,0,0,0,0,0,0,0,0,0,0,0,0,0,0,0,0,0,0],"id":41,"left_children":[1,3,-1,5,7,9,11,13,15,-1,-1,17,-1,-1,19,-1,-1,-1,-1,-1,21,-1,-1],"loss_changes":[5.262774E0,6.5235977E0,0E0,2.7280393E0,3.699933E0,3.9711123E0,3.0737333E0,4.8380713E0,2.1035604E0,0E0,0E0,2.2200584E-1,0E0,0E0,3.2627919E0,0E0,0E0,0E0,0E0,0E0,2.7801957E0,0E0,0E0],"parents":[2147483647,0,0,1,1,3,3,4,4,5,5,6,6,7,7,8,8,11,11,14,14,20,20],"right_children":[2,4,-1,6,8,10,12,14,16,-1,-1,18,-1,-1,20,-1,-1,-1,-1,-1,22,-1,-1],"split_conditions":[7.5031696E-3,-2.0693658E-2,-4.4664185E-2,-3.236336E-4,1E0,-3.89685E-2,-3.649064E-1,9.1572744E-1,5.2388936E-1,-2.6389295E-2,2.673989E-2,3.267057E-1,5.313722E-3,3.827653E-2,4.28359E-1,-9.399548E-3,-5.0870992E-2,5.333648E-2,2.5659546E-2,-3.5331026E-2,3.4987026E-1,-1.0117552E-2,2.8111288E-2],"split_indices":[5,10,0,47,28,5,9,39,0,0,0,19,0,0,14,0,0,0,0,0,2,0,0],"split_type":[0,0,0,0,0,0,0,0,0,0,0,0,0,0,0,0,0,0,0,0,0,0,0],"sum_hessian":[8.446637E1,7.943964E1,5.026731E0,3.3745792E1,4.5693844E1,1.2068034E1,2.1677757E1,3.2647892E1,1.3045953E1,5.861639E0,6.2063956E0,1.3161169E1,8.516588E0,5.8874536E0,2.6760439E1,7.457022E0,5.58893E0,7.669358E0,5.4918113E0,7.0778575E0,1.968258E1,1.3670931E1,6.01165E0],"tree_param":{"num_deleted":"0","num_feature":"48","num_nodes":"23","size_leaf_vector":"1"}},{"base_weights":[-1.7281381E-3,5.849841E-1,-1.0061906E-1,4.7969908E-2,4.7493232E-3,-4.1003168E-2,-2.1673424E-2,6.9926806E-2,-2.6979594E-2,3.6166962E-2,-6.596459E-2,-2.4047364E-1,4.3240285E-1,2.7694171E-2,-2.0077622E-2,-0E0,3.5975706E-2],"categories":[],"categories_nodes":[],"categories_segments":[],"categories_sizes":[],"default_left":[0,0,0,0,0,0,0,0,0,0,0,0,0,0,0,0,0],"id":42,"left_children":[1,3,5,-1,-1,-1,7,9,-1,-1,11,13,15,-1,-1,-1,-1],"loss_changes":[4.878987E0,2.024087E0,4.0332646E0,0E0,0E0,0E0,3.251892E0,5.214473E0,0E0,0E0,4.2895484E0,4.8902817E0,1.5649858E0,0E0,0E0,0E0,0E0],"parents":[2147483647,0,0,1,1,2,2,6,6,7,7,10,10,11,11,12,12],"right_children":[2,4,6,-1,-1,-1,8,10,-1,-1,12,14,16,-1,-1,-1,-1],"split_conditions":[1.4495623E-1,1E0,3.177278E-1,4.7969908E-2,4.7493232E-3,-4.1003168E-2,2.7525043E-1,-3.8805865E-2,-2.6979594E-2,3.6166962E-2,9.97031E-1,2.1711592E-1,-5.8960386E-2,2.7694171E-2,-2.0077622E-2,-0E0,3.5975706E-2],"split_indices":[12,27,14,0,0,0,8,10,0,0,39,2,16,0,0,0,0],"split_type":[0,0,0,0,0,0,0,0,0,0,0,0,0,0,0,0,0],"sum_hessian":[8.291106E1,1.1104175E1,7.180688E1,5.635763E0,5.4684114E0,6.0468225E0,6.5760056E1,5.6448376E1,9.311683E0,9.100931E0,4.7347443E1,3.5599873E1,1.174757E1,5.48606E0,3.0113811E1,5.1207137E0,6.626857E0],"tree_param":{"num_deleted":"0","num_feature":"48","num_nodes":"17","size_leaf_vector":"1"}},{"base_weights":[4.4212926E-2,1.1941114E-1,-2.8841516E-2,-4.685755E-2,3.4922966E-1,-1.8134896E-1,3.31466E-2,5.8071585E-3,7.7725846E-1,-4.0232196E-2,-3.7403565E-2,2.7720305E-1,-2.0337816E-2,4.8683446E-2,1.8602489E-2,-1.8013746E-1,2.6794065E-2,-5.766058E-3,3.1320754E-2,7.4463435E-3,-3.3374842E-2],"categories":[],"categories_nodes":[],"categories_segments":[],"categories_sizes":[],"default_left":[0,0,0,0,0,0,0,0,0,0,0,0,0,0,0,0,0,0,0,0,0],"id":43,"left_children":[1,3,-1,5,7,9,-1,11,13,15,-1,17,-1,-1,-1,19,-1,-1,-1,-1,-1],"loss_changes":[3.9248009E0,2.9313397E0,0E0,4.3136044E0,4.6300344E0,2.9507256E0,0E0,2.2189012E0,6.281738E-1,2.6264129E0,0E0,1.789763E0,0E0,0E0,0E0,4.400796E0,0E0,0E0,0E0,0E0,0E0],"parents":[2147483647,0,0,1,1,3,3,4,4,5,5,7,7,8,8,9,9,11,11,15,15],"right_children":[2,4,-1,6,8,10,-1,12,14,16,-1,18,-1,-1,-1,20,-1,-1,-1,-1,-1],"split_conditions":[1E0,2.2892253E-1,-2.8841516E-2,9.145505E-1,3.6916643E-1,7.4778074E-1,3.31466E-2,-7.982351E-2,-1.6347319E-2,6.092306E-1,-3.7403565E-2,4.4568816E-1,-2.0337816E-2,4.8683446E-2,1.8602489E-2,-3.7526104E-1,2.6794065E-2,-5.766058E-3,3.1320754E-2,7.4463435E-3,-3.3374842E-2],"split_indices":[27,3,0,12,2,12,0,9,10,12,0,14,0,0,0,9,0,0,0,0,0],"split_type":[0,0,0,0,0,0,0,0,0,0,0,0,0,0,0,0,0,0,0,0,0],"sum_hessian":[8.254499E1,7.449375E1,8.051234E0,4.3432365E1,3.1061386E1,3.725807E1,6.1742945E0,1.7925959E1,1.3135427E1,3.0828949E1,6.429122E0,1.1157031E1,6.7689276E0,7.736007E0,5.39942E0,2.5497866E1,5.3310847E0,5.4332795E0,5.723752E0,1.5512847E1,9.985019E0],"tree_param":{"num_deleted":"0","num_feature":"48","num_nodes":"21","size_leaf_vector":"1"}},{"base_weights":[-9.535745E-3,2.6619434E-2,-8.854041E-2,-1.9681022E-1,3.3982292E-1,-3.1708768E-1,2.890663E-1,-1.152989E-2,3.592519E-2,9.4328314E-2,-5.1687443E-1,3.915442E-2,-1.3555409E-2,-3.339964E-2,3.2186657E-2,-7.372052E-1,4.851323E-3,-2.477257E-2,-5.3598057E-2],"categories":[],"categories_nodes":[],"categories_segments":[],"categories_sizes":[],"default_left":[0,0,0,0,0,0,0,0,0,0,0,0,0,0,0,0,0,0,0],"id":44,"left_children":[1,-1,3,5,7,9,11,-1,-1,13,15,-1,-1,-1,-1,17,-1,-1,-1],"loss_changes":[3.3313007E0,0E0,3.2466905E0,3.3550975E0,3.2548783E0,3.819831E0,3.4264302E0,0E0,0E0,6.923871E0,4.30896E0,0E0,0E0,0E0,0E0,1.1687832E0,0E0,0E0,0E0],"parents":[2147483647,0,0,2,2,3,3,4,4,5,5,6,6,9,9,10,10,15,15],"right_children":[2,-1,4,6,8,10,12,-1,-1,14,16,-1,-1,-1,-1,18,-1,-1,-1],"split_conditions":[1.3230357E-1,2.6619434E-2,2.8405434E-1,3.3297172E-1,1E0,3.8979405E-1,5.7098243E-2,-1.152989E-2,3.592519E-2,3.1451276E-1,9.9957263E-1,3.915442E-2,-1.3555409E-2,-3.339964E-2,3.2186657E-2,5.673422E-2,4.851323E-3,-2.477257E-2,-5.3598057E-2],"split_indices":[12,0,3,13,7,14,10,0,0,14,39,0,0,0,0,16,0,0,0],"split_type":[0,0,0,0,0,0,0,0,0,0,0,0,0,0,0,0,0,0,0],"sum_hessian":[7.674336E1,8.873315E0,6.787005E1,5.479459E1,1.3075457E1,4.4365284E1,1.0429308E1,5.267622E0,7.807835E0,1.4510822E1,2.9854462E1,5.425286E0,5.0040216E0,5.911088E0,8.599734E0,2.1941599E1,7.9128613E0,1.4354118E1,7.5874815E0],"tree_param":{"num_deleted":"0","num_feature":"48","num_nodes":"19","size_leaf_vector":"1"}},{"base_weights":[-4.2789742E-2,-3.6799688E-2,2.6341863E-2,4.1327477E-2,-6.307401E-2,-1.3919188E-1,2.7728358E-2,-5.8701646E-1,4.1315723E-2,-2.137831E-4,-8.324138E-1,1.3904527E-1,-2.318694E-2,-5.237309E-2,-2.0759651E-2,-3.5037093E-3,4.1223865E-2],"categories":[],"categories_nodes":[],"categories_segments":[],"categories_sizes":[],"default_left":[0,0,0,0,0,0,0,0,0,0,0,0,0,0,0,0,0],"id":45,"left_children":[1,-1,3,-1,5,7,-1,9,11,-1,13,15,-1,-1,-1,-1,-1],"loss_changes":[4.0130057E0,0E0,5.513845E0,0E0,3.2569056E0,5.0860677E0,0E0,2.489694E0,2.2493742E0,0E0,5.4524326E-1,5.6624713E0,0E0,0E0,0E0,0E0,0E0],"parents":[2147483647,0,0,2,2,4,4,5,5,7,7,8,8,10,10,11,11],"right_children":[2,-1,4,-1,6,8,-1,10,12,-1,14,16,-1,-1,-1,-1,-1],"split_conditions":[-6.912211E-2,-3.6799688E-2,1.3531353E-1,4.1327477E-2,5.6391466E-1,3.5015985E-2,2.7728358E-2,9.30372E-3,7.9809695E-1,-2.137831E-4,1.2526974E-1,5.371724E-1,-2.318694E-2,-5.237309E-2,-2.0759651E-2,-3.5037093E-3,4.1223865E-2],"split_indices":[47,0,12,0,13,4,0,47,12,0,13,18,0,0,0,0,0],"split_type":[0,0,0,0,0,0,0,0,0,0,0,0,0,0,0,0,0],"sum_hessian":[8.085442E1,6.588612E0,7.426581E1,6.748257E0,6.751755E1,6.0943447E1,6.574102E0,1.7020052E1,4.3923397E1,5.465692E0,1.155436E1,3.757518E1,6.3482175E0,6.469525E0,5.0848355E0,2.936733E1,8.2078495E0],"tree_param":{"num_deleted":"0","num_feature":"48","num_nodes":"17","size_leaf_vector":"1"}},{"base_weights":[-0E0,-3.0897869E-2,6.366754E-2,3.608674E-2,-6.613892E-3,9.656175E-2,-3.5507496E-2,4.0841643E-2,1.1201816E-2,-1.5503408E-1,3.9101622E-1,-1.3397718E-2,2.0723194E-2,4.2394023E-2,-1.4905504E-2],"categories":[],"categories_nodes":[],"categories_segments":[],"categories_sizes":[],"default_left":[0,0,0,0,0,0,0,0,0,0,0,0,0,0,0],"id":46,"left_children":[1,-1,3,-1,5,7,-1,-1,9,11,13,-1,-1,-1,-1],"loss_changes":[3.2834296E0,0E0,3.6227722E0,0E0,5.2208967E0,3.7151275E0,0E0,0E0,3.6514819E0,2.6578918E0,5.870015E0,0E0,0E0,0E0,0E0],"parents":[2147483647,0,0,2,2,4,4,5,5,8,8,9,9,10,10],"right_children":[2,-1,4,-1,6,8,-1,-1,10,12,14,-1,-1,-1,-1],"split_conditions":[-6.912211E-2,-3.0897869E-2,-9.8071225E-2,3.608674E-2,2.7341935E-1,4.481816E-1,-3.5507496E-2,4.0841643E-2,4.588813E-2,2.918129E-1,1E0,-1.3397718E-2,2.0723194E-2,4.2394023E-2,-1.4905504E-2],"split_indices":[47,0,10,0,8,18,0,0,9,42,28,0,0,0,0],"split_type":[0,0,0,0,0,0,0,0,0,0,0,0,0,0,0],"sum_hessian":[8.246523E1,6.7842975E0,7.568094E1,6.5456443E0,6.913529E1,6.0921574E1,8.213721E0,5.4228153E0,5.5498756E1,3.88316E1,1.6667156E1,3.299452E1,5.837082E0,9.971305E0,6.695851E0],"tree_param":{"num_deleted":"0","num_feature":"48","num_nodes":"15","size_leaf_vector":"1"}},{"base_weights":[2.9733522E-2,8.432432E-2,-3.063718E-2,-3.846986E-2,5.349604E-1,2.255938E-1,-2.1316051E-1,7.8290266E-1,-7.0604315E-4,3.5385697E-3,4.2480253E-2,-6.2508136E-1,3.0198231E-2,1.9191103E-2,5.165055E-2,-3.1151569E-2,2.8492677E-1,-4.644215E-2,-1.3731712E-3,-2.1651167E-1,3.0970661E-2,3.7061717E-2,-9.332964E-3,3.845172E-3,-3.8252052E-2],"categories":[],"categories_nodes":[],"categories_segments":[],"categories_sizes":[],"default_left":[0,0,0,0,0,0,0,0,0,0,0,0,0,0,0,0,0,0,0,0,0,0,0,0,0],"id":47,"left_children":[1,3,-1,5,7,9,11,13,-1,15,-1,17,19,-1,-1,-1,21,-1,-1,23,-1,-1,-1,-1,-1],"loss_changes":[2.9469855E0,4.413872E0,0E0,2.9274364E0,2.409224E0,3.3925428E0,3.9202385E0,6.48571E-1,0E0,3.608201E0,0E0,2.4987311E0,3.7929935E0,0E0,0E0,0E0,3.283184E0,0E0,0E0,3.0516782E0,0E0,0E0,0E0,0E0,0E0],"parents":[2147483647,0,0,1,1,3,3,4,4,5,5,6,6,7,7,9,9,11,11,12,12,16,16,19,19],"right_children":[2,4,-1,6,8,10,12,14,-1,16,-1,18,20,-1,-1,-1,22,-1,-1,24,-1,-1,-1,-1,-1],"split_conditions":[4.9219476E-3,-3.3612728E-2,-3.063718E-2,-2.5304915E-2,2.779675E-3,4.9232337E-1,1E0,1.0474315E-1,-7.0604315E-4,3.92835E-5,4.2480253E-2,4.7019118E-1,3.4987026E-1,1.9191103E-2,5.165055E-2,-3.1151569E-2,3.4156162E-1,-4.644215E-2,-1.3731712E-3,2.619402E-1,3.0970661E-2,3.7061717E-2,-9.332964E-3,3.845172E-3,-3.8252052E-2],"split_indices":[5,5,0,10,10,18,47,42,0,47,0,2,2,0,0,0,0,0,0,3,0,0,0,0,0],"split_type":[0,0,0,0,0,0,0,0,0,0,0,0,0,0,0,0,0,0,0,0,0,0,0,0,0],"sum_hessian":[8.3056946E1,7.749652E1,5.5604224E0,6.1445824E1,1.60507E1,2.4120808E1,3.732502E1,1.0889661E1,5.161038E0,1.8650076E1,5.470731E0,1.3431894E1,2.3893124E1,5.3259144E0,5.5637465E0,5.2934914E0,1.3356585E1,8.42699E0,5.0049047E0,1.7167679E1,6.725445E0,6.605425E0,6.75116E0,1.1626184E1,5.541494E0],"tree_param":{"num_deleted":"0","num_feature":"48","num_nodes":"25","size_leaf_vector":"1"}},{"base_weights":[-3.1800374E-2,-2.7955604E-1,1.5463324E-1,-4.0516764E-1,1.355196E-2,-2.585651E-2,2.782876E-1,-7.49827E-2,-8.3765537E-1,9.9669695E-2,7.032956E-1,-2.1463856E-2,1.4261489E-2,-2.4426945E-2,-5.033165E-2,2.8738469E-2,-1.505787E-1,5.5399943E-2,9.452573E-3,-4.1454226E-1,8.854825E-3,-3.1528782E-2,-6.442328E-3],"categories":[],"categories_nodes":[],"categories_segments":[],"categories_sizes":[],"default_left":[0,0,0,0,0,0,0,0,0,0,0,0,0,0,0,0,0,0,0,0,0,0,0],"id":48,"left_children":[1,3,5,7,-1,-1,9,11,13,15,17,-1,-1,-1,-1,-1,19,-1,-1,21,-1,-1,-1],"loss_changes":[3.746481E0,2.5366669E0,3.9417534E0,3.9817753E0,0E0,0E0,2.8581986E0,2.3897543E0,8.486271E-2,3.6048071E0,2.032628E0,0E0,0E0,0E0,0E0,0E0,1.8100368E0,0E0,0E0,5.486572E-1,0E0,0E0,0E0],"parents":[2147483647,0,0,1,1,2,2,3,3,6,6,7,7,8,8,9,9,10,10,16,16,19,19],"right_children":[2,4,6,8,-1,-1,10,12,14,16,18,-1,-1,-1,-1,-1,20,-1,-1,22,-1,-1,-1],"split_conditions":[3.934919E-2,9.145505E-1,-1.078037E-1,4.3863007E-1,1.355196E-2,-2.585651E-2,5.4332006E-1,-3.236336E-4,1.2482899E-1,4.617264E-1,5.5300385E-1,-2.1463856E-2,1.4261489E-2,-2.4426945E-2,-5.033165E-2,2.8738469E-2,2.4646768E-1,5.5399943E-2,9.452573E-3,4.951703E-1,8.854825E-3,-3.1528782E-2,-6.442328E-3],"split_indices":[4,12,5,0,0,0,18,47,3,18,0,0,0,0,0,0,3,0,0,18,0,0,0],"split_type":[0,0,0,0,0,0,0,0,0,0,0,0,0,0,0,0,0,0,0,0,0,0,0],"sum_hessian":[7.890391E1,3.389586E1,4.500805E1,2.796234E1,5.9335184E0,6.37648E0,3.863157E1,1.6653067E1,1.1309273E1,2.8235044E1,1.0396525E1,8.438796E0,8.214271E0,5.150667E0,6.1586056E0,9.431684E0,1.880336E1,5.062964E0,5.3335614E0,1.0436314E1,8.367046E0,5.055976E0,5.380338E0],"tree_param":{"num_deleted":"0","num_feature":"48","num_nodes":"23","size_leaf_vector":"1"}},{"base_weights":[6.2859125E-2,1.2527496E-1,-3.318758E-2,-0E0,4.7132632E-1,-3.3303595E-1,2.719322E-1,2.4569364E-1,4.6622526E-2,1.2681952E-2,-4.24236E-2,4.3888893E-2,8.310707E-2,3.1968452E-2,-5.346834E-3,-2.9587869E-2,3.0091742E-2,-2.1042021E-2,4.0461177E-1,3.583174E-2,-7.467846E-3],"categories":[],"categories_nodes":[],"categories_segments":[],"categories_sizes":[],"default_left":[0,0,0,0,0,0,0,0,0,0,0,0,0,0,0,0,0,0,0,0,0],"id":49,"left_children":[1,3,-1,5,7,9,11,13,-1,15,-1,-1,17,-1,-1,-1,-1,-1,19,-1,-1],"loss_changes":[3.734124E0,3.333675E0,0E0,5.2391114E0,1.7745013E0,4.7436056E0,3.459227E0,2.2308607E0,0E0,6.2277827E0,0E0,0E0,4.2856483E0,0E0,0E0,0E0,0E0,0E0,2.954296E0,0E0,0E0],"parents":[2147483647,0,0,1,1,3,3,4,4,5,5,6,6,7,7,9,9,12,12,18,18],"right_children":[2,4,-1,6,8,10,12,14,-1,16,-1,-1,18,-1,-1,-1,-1,-1,20,-1,-1],"split_conditions":[7.5031696E-3,-3.8283784E-2,-3.318758E-2,3.932131E-1,2.5554556E-1,4.5843425E-1,-5.7536315E-2,3.107415E-1,4.6622526E-2,-3.236336E-4,-4.24236E-2,4.3888893E-2,-8.6722165E-2,3.1968452E-2,-5.346834E-3,-2.9587869E-2,3.0091742E-2,-2.1042021E-2,7.389875E-1,3.583174E-2,-7.467846E-3],"split_indices":[5,5,0,47,3,14,10,2,0,47,0,0,16,0,0,0,0,0,19,0,0],"split_type":[0,0,0,0,0,0,0,0,0,0,0,0,0,0,0,0,0,0,0,0,0],"sum_hessian":[8.0690315E1,7.519618E1,5.494135E0,5.580674E1,1.938944E1,2.509083E1,3.0715912E1,1.4193898E1,5.1955423E0,1.5485583E1,9.605247E0,6.3057356E0,2.4410175E1,6.456416E0,7.7374825E0,7.5576663E0,7.9279175E0,9.266013E0,1.5144163E1,9.61525E0,5.528913E0],"tree_param":{"num_deleted":"0","num_feature":"48","num_nodes":"21","size_leaf_vector":"1"}},{"base_weights":[1.0270667E-2,-2.2645578E-1,2.516787E-1,1.727069E-2,-7.1063864E-1,-2.501507E-2,3.778324E-1,-3.0502303E-2,2.3264651E-1,-1.4091774E-2,-4.5780536E-2,8.021022E-1,9.858278E-2,4.8069602E-1,-1.2926869E-2,5.4964233E-2,1.8173734E-2,-2.5906408E-2,4.396255E-1,4.4571403E-2,-1.0606418E-2,-5.9246523E-3,3.894454E-2],"categories":[],"categories_nodes":[],"categories_segments":[],"categories_sizes":[],"default_left":[0,0,0,0,0,0,0,0,0,0,0,0,0,0,0,0,0,0,0,0,0,0,0],"id":50,"left_children":[1,3,5,7,9,-1,11,-1,13,-1,-1,15,17,19,-1,-1,-1,-1,21,-1,-1,-1,-1],"loss_changes":[4.616171E0,4.8697867E0,3.9865441E0,3.8640082E0,8.304515E-1,0E0,3.9863257E0,0E0,2.7731214E0,0E0,0E0,1.2321329E0,4.9384127E0,4.4712887E0,0E0,0E0,0E0,0E0,3.0158405E0,0E0,0E0,0E0,0E0],"parents":[2147483647,0,0,1,1,2,2,3,3,4,4,6,6,8,8,11,11,12,12,13,13,18,18],"right_children":[2,4,6,8,10,-1,12,-1,14,-1,-1,16,18,20,-1,-1,-1,-1,22,-1,-1,-1,-1],"split_conditions":[3.932131E-1,4.5843425E-1,2.0500277E-1,-6.912211E-2,1.0218728E-1,-2.501507E-2,-4.250879E-3,-3.0502303E-2,9.30372E-3,-1.4091774E-2,-4.5780536E-2,2.1785608E-1,2.6665514E-2,5.811663E-1,-1.2926869E-2,5.4964233E-2,1.8173734E-2,-2.5906408E-2,9.8084676E-1,4.4571403E-2,-1.0606418E-2,-5.9246523E-3,3.894454E-2],"split_indices":[47,14,2,47,42,0,10,0,47,0,0,8,10,2,0,0,0,0,40,0,0,0,0],"split_type":[0,0,0,0,0,0,0,0,0,0,0,0,0,0,0,0,0,0,0,0,0,0,0],"sum_hessian":[7.873473E1,3.9574955E1,3.9159782E1,2.6828104E1,1.2746851E1,5.0857897E0,3.407399E1,6.26973E0,2.0558374E1,5.0484085E0,7.6984425E0,1.2639732E1,2.143426E1,1.3809482E1,6.748893E0,6.500969E0,6.138764E0,7.343133E0,1.4091126E1,8.580388E0,5.2290936E0,5.461879E0,8.629248E0],"tree_param":{"num_deleted":"0","num_feature":"48","num_nodes":"23","size_leaf_vector":"1"}}]},"name":"gbtree"},"learner_model_param":{"base_score":"[5.2733684E-1]","boost_from_average":"1","num_class":"0","num_feature":"48","num_target":"1"},"objective":{"name":"binary:logistic","reg_loss_param":{"scale_pos_weight":"1"}}},"version":[3,2,0]}